{"learner":{"attributes":{"best_iteration":"274","best_score":"0.727241899337383"},"feature_names":["user_reorder_rate","user_avg_basket_size","user_order_frequency_per_week","user_cuisine_diversity","user_history_length","user_average_rating","business_rating","business_open","business_prep_time_minutes","cuisine_match","price_match","rating_gap_to_user_average","user_dominant_cuisine__American","user_dominant_cuisine__French","user_dominant_cuisine__Mediterranean","user_dominant_cuisine__Mexican","user_dominant_price__0-100k","user_dominant_price__100-250k","user_dominant_price__250-500k","user_dominant_price__500k+","business_cuisine__American","business_cuisine__French","business_cuisine__Mediterranean","business_cuisine__Mexican","business_price__0-100k","business_price__100-250k","business_price__250-500k","business_price__500k+","user_tag_presence__bike-parking","user_tag_presence__accessible","user_tag_presence__family-friendly","user_tag_presence__takeout","user_tag_presence__shopping","user_tag_presence__event planning & services","user_tag_presence__home services","user_tag_presence__beauty & spas","user_tag_presence__local services","user_tag_presence__arts & entertainment","user_tag_presence__health & medical","user_tag_presence__hotels & travel","user_tag_presence__active life","user_tag_presence__outdoor-seating","user_tag_presence__has-tv","user_tag_presence__nightlife","user_tag_presence__bars","user_tag_presence__breakfast & brunch","user_tag_presence__pets","user_tag_presence__delivery","user_tag_presence__venues & event spaces","user_tag_presence__home & garden","user_tag_presence__reservations","user_tag_presence__dog-friendly","user_tag_presence__tours","user_tag_presence__hair salons","user_tag_presence__art galleries","user_tag_presence__transportation","user_tag_presence__landmarks & historical buildings","user_tag_presence__public services & government","user_tag_presence__museums","user_tag_presence__local flavor","user_tag_presence__pet services","user_tag_presence__home decor","user_tag_presence__arts & crafts","user_tag_presence__massage","user_tag_presence__professional services","user_tag_presence__real estate","user_tag_presence__massage therapy","user_tag_presence__sandwiches","user_tag_presence__desserts","user_tag_presence__cafes","user_tag_presence__american (new)","user_tag_presence__american (traditional)","user_tag_presence__pet stores","user_tag_presence__jewelry","user_tag_presence__fitness & instruction","user_tag_presence__doctors","user_tag_presence__music venues","user_tag_presence__pet groomers","business_tag_presence__bike-parking","business_tag_presence__accessible","business_tag_presence__family-friendly","business_tag_presence__takeout","business_tag_presence__shopping","business_tag_presence__event planning & services","business_tag_presence__home services","business_tag_presence__beauty & spas","business_tag_presence__local services","business_tag_presence__arts & entertainment","business_tag_presence__health & medical","business_tag_presence__hotels & travel","business_tag_presence__active life","business_tag_presence__outdoor-seating","business_tag_presence__has-tv","business_tag_presence__nightlife","business_tag_presence__bars","business_tag_presence__breakfast & brunch","business_tag_presence__pets","business_tag_presence__delivery","business_tag_presence__venues & event spaces","business_tag_presence__home & garden","business_tag_presence__reservations","business_tag_presence__dog-friendly","business_tag_presence__tours","business_tag_presence__hair salons","business_tag_presence__art galleries","business_tag_presence__transportation","business_tag_presence__landmarks & historical buildings","business_tag_presence__public services & government","business_tag_presence__museums","business_tag_presence__local flavor","business_tag_presence__pet services","business_tag_presence__home decor","business_tag_presence__arts & crafts","business_tag_presence__massage","business_tag_presence__professional services","business_tag_presence__real estate","business_tag_presence__massage therapy","business_tag_presence__sandwiches","business_tag_presence__desserts","business_tag_presence__cafes","business_tag_presence__american (new)","business_tag_presence__american (traditional)","business_tag_presence__pet stores","business_tag_presence__jewelry","business_tag_presence__fitness & instruction","business_tag_presence__doctors","business_tag_presence__music venues","business_tag_presence__pet groomers"],"feature_types":[],"gradient_booster":{"model":{"cats":{"enc":[],"feature_segments":[],"sorted_idx":[]},"gbtree_model_param":{"num_parallel_tree":"1","num_trees":"295"},"iteration_indptr":[0,1,2,3,4,5,6,7,8,9,10,11,12,13,14,15,16,17,18,19,20,21,22,23,24,25,26,27,28,29,30,31,32,33,34,35,36,37,38,39,40,41,42,43,44,45,46,47,48,49,50,51,52,53,54,55,56,57,58,59,60,61,62,63,64,65,66,67,68,69,70,71,72,73,74,75,76,77,78,79,80,81,82,83,84,85,86,87,88,89,90,91,92,93,94,95,96,97,98,99,100,101,102,103,104,105,106,107,108,109,110,111,112,113,114,115,116,117,118,119,120,121,122,123,124,125,126,127,128,129,130,131,132,133,134,135,136,137,138,139,140,141,142,143,144,145,146,147,148,149,150,151,152,153,154,155,156,157,158,159,160,161,162,163,164,165,166,167,168,169,170,171,172,173,174,175,176,177,178,179,180,181,182,183,184,185,186,187,188,189,190,191,192,193,194,195,196,197,198,199,200,201,202,203,204,205,206,207,208,209,210,211,212,213,214,215,216,217,218,219,220,221,222,223,224,225,226,227,228,229,230,231,232,233,234,235,236,237,238,239,240,241,242,243,244,245,246,247,248,249,250,251,252,253,254,255,256,257,258,259,260,261,262,263,264,265,266,267,268,269,270,271,272,273,274,275,276,277,278,279,280,281,282,283,284,285,286,287,288,289,290,291,292,293,294,295],"tree_info":[0,0,0,0,0,0,0,0,0,0,0,0,0,0,0,0,0,0,0,0,0,0,0,0,0,0,0,0,0,0,0,0,0,0,0,0,0,0,0,0,0,0,0,0,0,0,0,0,0,0,0,0,0,0,0,0,0,0,0,0,0,0,0,0,0,0,0,0,0,0,0,0,0,0,0,0,0,0,0,0,0,0,0,0,0,0,0,0,0,0,0,0,0,0,0,0,0,0,0,0,0,0,0,0,0,0,0,0,0,0,0,0,0,0,0,0,0,0,0,0,0,0,0,0,0,0,0,0,0,0,0,0,0,0,0,0,0,0,0,0,0,0,0,0,0,0,0,0,0,0,0,0,0,0,0,0,0,0,0,0,0,0,0,0,0,0,0,0,0,0,0,0,0,0,0,0,0,0,0,0,0,0,0,0,0,0,0,0,0,0,0,0,0,0,0,0,0,0,0,0,0,0,0,0,0,0,0,0,0,0,0,0,0,0,0,0,0,0,0,0,0,0,0,0,0,0,0,0,0,0,0,0,0,0,0,0,0,0,0,0,0,0,0,0,0,0,0,0,0,0,0,0,0,0,0,0,0,0,0,0,0,0,0,0,0,0,0,0,0,0,0,0,0,0,0,0,0,0,0,0,0,0,0,0,0,0,0,0,0,0,0,0,0,0,0],"trees":[{"base_weights":[-5.079854E-3,-2.90854E-1,4.7177076E-1,-2.3875093E-2,1.2775603E-2,5.57115E-3,3.390451E-2],"categories":[],"categories_nodes":[],"categories_segments":[],"categories_sizes":[],"default_left":[0,0,0,0,0,0,0],"id":0,"left_children":[1,3,5,-1,-1,-1,-1],"loss_changes":[1.943522E1,9.6985855E0,3.5970993E0,0E0,0E0,0E0,0E0],"parents":[2147483647,0,0,1,1,2,2],"right_children":[2,4,6,-1,-1,-1,-1],"split_conditions":[1E0,1E0,5E0,-2.3875093E-2,1.2775603E-2,5.57115E-3,3.390451E-2],"split_indices":[79,80,6,0,0,0,0],"split_type":[0,0,0,0,0,0,0],"sum_hessian":[1.3258655E2,8.412258E1,4.8463974E1,6.317212E1,2.0950459E1,2.044899E1,2.8014986E1],"tree_param":{"num_deleted":"0","num_feature":"128","num_nodes":"7","size_leaf_vector":"1"}},{"base_weights":[-6.196768E-5,-3.1483272E-1,3.0754614E-1,-2.3476047E-2,1.1176883E-2,1.238065E-3,2.8655473E-2],"categories":[],"categories_nodes":[],"categories_segments":[],"categories_sizes":[],"default_left":[0,0,0,0,0,0,0],"id":1,"left_children":[1,3,5,-1,-1,-1,-1],"loss_changes":[2.055294E1,9.261757E0,7.9911356E0,0E0,0E0,0E0,0E0],"parents":[2147483647,0,0,1,1,2,2],"right_children":[2,4,6,-1,-1,-1,-1],"split_conditions":[1E0,1E0,5E0,-2.3476047E-2,1.1176883E-2,1.238065E-3,2.8655473E-2],"split_indices":[78,81,6,0,0,0,0],"split_type":[0,0,0,0,0,0,0],"sum_hessian":[2.022667E2,9.9911415E1,1.0235528E2,7.8108246E1,2.1803171E1,5.221761E1,5.013767E1],"tree_param":{"num_deleted":"0","num_feature":"128","num_nodes":"7","size_leaf_vector":"1"}},{"base_weights":[1.2148748E-2,-2.767042E-1,3.2378906E-1,-2.902778E-2,4.1070343E-3,7.640712E-3,2.7615715E-2],"categories":[],"categories_nodes":[],"categories_segments":[],"categories_sizes":[],"default_left":[0,0,0,0,0,0,0],"id":2,"left_children":[1,3,5,-1,-1,-1,-1],"loss_changes":[1.895961E1,1.2169047E1,3.5330133E0,0E0,0E0,0E0,0E0],"parents":[2147483647,0,0,1,1,2,2],"right_children":[2,4,6,-1,-1,-1,-1],"split_conditions":[1E0,1E0,1.9E-1,-2.902778E-2,4.1070343E-3,7.640712E-3,2.7615715E-2],"split_indices":[79,80,11,0,0,0,0],"split_type":[0,0,0,0,0,0,0],"sum_hessian":[2.0064326E2,1.044195E2,9.6223755E1,5.4869556E1,4.954995E1,5.9815395E1,3.6408363E1],"tree_param":{"num_deleted":"0","num_feature":"128","num_nodes":"7","size_leaf_vector":"1"}},{"base_weights":[9.5842E-3,-2.4188653E-1,2.9011086E-1,-2.8419903E-2,1.994814E-3,5.3134263E-3,2.8329277E-2],"categories":[],"categories_nodes":[],"categories_segments":[],"categories_sizes":[],"default_left":[0,0,0,0,0,0,0],"id":3,"left_children":[1,3,5,-1,-1,-1,-1],"loss_changes":[1.4361944E1,1.0000042E1,4.5863695E0,0E0,0E0,0E0,0E0],"parents":[2147483647,0,0,1,1,2,2],"right_children":[2,4,6,-1,-1,-1,-1],"split_conditions":[1E0,1E0,1.9E-1,-2.8419903E-2,1.994814E-3,5.3134263E-3,2.8329277E-2],"split_indices":[79,80,11,0,0,0,0],"split_type":[0,0,0,0,0,0,0],"sum_hessian":[1.93614E2,1.02457436E2,9.115656E1,4.5105904E1,5.735153E1,5.8907658E1,3.2248905E1],"tree_param":{"num_deleted":"0","num_feature":"128","num_nodes":"7","size_leaf_vector":"1"}},{"base_weights":[-2.173328E-2,-2.3690237E-1,2.0389621E-1,-2.863516E-2,9.974781E-5,1.3723986E-2,-1.8477207E-2],"categories":[],"categories_nodes":[],"categories_segments":[],"categories_sizes":[],"default_left":[0,0,0,0,0,0,0],"id":4,"left_children":[1,3,5,-1,-1,-1,-1],"loss_changes":[9.743337E0,8.227987E0,4.4828205E0,0E0,0E0,0E0,0E0],"parents":[2147483647,0,0,1,1,2,2],"right_children":[2,4,6,-1,-1,-1,-1],"split_conditions":[1E0,1E0,1E0,-2.863516E-2,9.974781E-5,1.3723986E-2,-1.8477207E-2],"split_indices":[79,80,93,0,0,0,0],"split_type":[0,0,0,0,0,0,0],"sum_hessian":[1.9071811E2,9.749411E1,9.3224E1,3.762332E1,5.9870792E1,8.53279E1,7.8960953E0],"tree_param":{"num_deleted":"0","num_feature":"128","num_nodes":"7","size_leaf_vector":"1"}},{"base_weights":[2.0375825E-2,-2.8751796E-1,2.3240541E-1,-2.187733E-2,4.171358E-3,1.9716255E-3,2.6104758E-2],"categories":[],"categories_nodes":[],"categories_segments":[],"categories_sizes":[],"default_left":[0,0,0,0,0,0,0],"id":5,"left_children":[1,3,5,-1,-1,-1,-1],"loss_changes":[1.3202687E1,4.7806745E0,6.57729E0,0E0,0E0,0E0,0E0],"parents":[2147483647,0,0,1,1,2,2],"right_children":[2,4,6,-1,-1,-1,-1],"split_conditions":[1E0,1E0,1.9E-1,-2.187733E-2,4.171358E-3,1.9716255E-3,2.6104758E-2],"split_indices":[78,81,11,0,0,0,0],"split_type":[0,0,0,0,0,0,0],"sum_hessian":[1.921212E2,7.7622856E1,1.1449835E2,5.4630035E1,2.2992825E1,7.213031E1,4.236804E1],"tree_param":{"num_deleted":"0","num_feature":"128","num_nodes":"7","size_leaf_vector":"1"}},{"base_weights":[1.3696783E-3,-2.4495845E-1,1.653623E-1,-1.9523807E-2,4.144745E-3,-2.665616E-2,1.11491E-2],"categories":[],"categories_nodes":[],"categories_segments":[],"categories_sizes":[],"default_left":[0,0,0,0,0,0,0],"id":6,"left_children":[1,3,5,-1,-1,-1,-1],"loss_changes":[8.105336E0,3.9882355E0,5.4412594E0,0E0,0E0,0E0,0E0],"parents":[2147483647,0,0,1,1,2,2],"right_children":[2,4,6,-1,-1,-1,-1],"split_conditions":[1E0,1E0,1E0,-1.9523807E-2,4.144745E-3,-2.665616E-2,1.11491E-2],"split_indices":[78,81,20,0,0,0,0],"split_type":[0,0,0,0,0,0,0],"sum_hessian":[1.9063332E2,7.5203674E1,1.1542964E2,5.1424065E1,2.3779613E1,5.6519976E0,1.0977764E2],"tree_param":{"num_deleted":"0","num_feature":"128","num_nodes":"7","size_leaf_vector":"1"}},{"base_weights":[-1.1831182E-2,-2.3194623E-1,1.8479306E-1,-2.4039071E-2,-1.0192236E-3,4.1180192E-3,3.3030655E-2],"categories":[],"categories_nodes":[],"categories_segments":[],"categories_sizes":[],"default_left":[0,0,0,0,0,0,0],"id":7,"left_children":[1,3,5,-1,-1,-1,-1],"loss_changes":[8.381268E0,4.754718E0,4.7213984E0,0E0,0E0,0E0,0E0],"parents":[2147483647,0,0,1,1,2,2],"right_children":[2,4,6,-1,-1,-1,-1],"split_conditions":[1E0,1E0,4.5E-1,-2.4039071E-2,-1.0192236E-3,4.1180192E-3,3.3030655E-2],"split_indices":[79,80,11,0,0,0,0],"split_type":[0,0,0,0,0,0,0],"sum_hessian":[1.837007E2,8.624913E1,9.745158E1,3.670945E1,4.9539677E1,8.5015274E1,1.2436298E1],"tree_param":{"num_deleted":"0","num_feature":"128","num_nodes":"7","size_leaf_vector":"1"}},{"base_weights":[9.002632E-4,-2.9725346E-1,1.8558903E-1,-2.2645872E-2,-3.0029067E-3,-2.6382206E-2,1.217574E-2],"categories":[],"categories_nodes":[],"categories_segments":[],"categories_sizes":[],"default_left":[0,0,0,0,0,0,0],"id":8,"left_children":[1,3,5,-1,-1,-1,-1],"loss_changes":[1.0726375E1,2.6152763E0,5.6112986E0,0E0,0E0,0E0,0E0],"parents":[2147483647,0,0,1,1,2,2],"right_children":[2,4,6,-1,-1,-1,-1],"split_conditions":[1E0,1E0,1E0,-2.2645872E-2,-3.0029067E-3,-2.6382206E-2,1.217574E-2],"split_indices":[78,80,20,0,0,0,0],"split_type":[0,0,0,0,0,0,0],"sum_hessian":[1.8478331E2,6.951455E1,1.1526876E2,3.9225025E1,3.0289524E1,5.612902E0,1.0965586E2],"tree_param":{"num_deleted":"0","num_feature":"128","num_nodes":"7","size_leaf_vector":"1"}},{"base_weights":[-1.5914697E-2,-2.0571195E-1,1.5798782E-1,-2.4396818E-2,4.0530582E-4,-1.5329915E-3,2.3193857E-2],"categories":[],"categories_nodes":[],"categories_segments":[],"categories_sizes":[],"default_left":[0,0,0,0,0,0,0],"id":9,"left_children":[1,3,5,-1,-1,-1,-1],"loss_changes":[6.2473497E0,5.4701595E0,5.785886E0,0E0,0E0,0E0,0E0],"parents":[2147483647,0,0,1,1,2,2],"right_children":[2,4,6,-1,-1,-1,-1],"split_conditions":[1E0,1E0,1.9E-1,-2.4396818E-2,4.0530582E-4,-1.5329915E-3,2.3193857E-2],"split_indices":[79,80,11,0,0,0,0],"split_type":[0,0,0,0,0,0,0],"sum_hessian":[1.7935463E2,8.5320854E1,9.4033775E1,3.401432E1,5.130653E1,6.0946053E1,3.3087727E1],"tree_param":{"num_deleted":"0","num_feature":"128","num_nodes":"7","size_leaf_vector":"1"}},{"base_weights":[1.0891581E-2,-1.9919896E-1,2.0281437E-1,-2.3283957E-2,-7.6352234E-4,1.7586108E-3,2.4046285E-2],"categories":[],"categories_nodes":[],"categories_segments":[],"categories_sizes":[],"default_left":[0,0,0,0,0,0,0],"id":10,"left_children":[1,3,5,-1,-1,-1,-1],"loss_changes":[7.556208E0,4.3558674E0,4.474899E0,0E0,0E0,0E0,0E0],"parents":[2147483647,0,0,1,1,2,2],"right_children":[2,4,6,-1,-1,-1,-1],"split_conditions":[1E0,1E0,1.9E-1,-2.3283957E-2,-7.6352234E-4,1.7586108E-3,2.4046285E-2],"split_indices":[79,80,11,0,0,0,0],"split_type":[0,0,0,0,0,0,0],"sum_hessian":[1.7739072E2,8.459655E1,9.279417E1,3.1418053E1,5.3178493E1,6.140956E1,3.1384605E1],"tree_param":{"num_deleted":"0","num_feature":"128","num_nodes":"7","size_leaf_vector":"1"}},{"base_weights":[1.3292133E-2,-5.4272525E-2,3.393547E-1,-1.040516E-2,7.638146E-3,-6.7340205E-3,2.9907925E-2],"categories":[],"categories_nodes":[],"categories_segments":[],"categories_sizes":[],"default_left":[0,0,0,0,0,0,0],"id":11,"left_children":[1,3,5,-1,-1,-1,-1],"loss_changes":[4.243049E0,5.2670975E0,4.455121E0,0E0,0E0,0E0,0E0],"parents":[2147483647,0,0,1,1,2,2],"right_children":[2,4,6,-1,-1,-1,-1],"split_conditions":[1E0,5E0,1E0,-1.040516E-2,7.638146E-3,-6.7340205E-3,2.9907925E-2],"split_indices":[97,6,31,0,0,0,0],"split_type":[0,0,0,0,0,0,0],"sum_hessian":[1.8342047E2,1.553894E2,2.8031069E1,8.913493E1,6.625448E1,1.0746104E1,1.7284964E1],"tree_param":{"num_deleted":"0","num_feature":"128","num_nodes":"7","size_leaf_vector":"1"}},{"base_weights":[-4.027607E-2,-1.6280876E-1,1.2487054E-1,-1.6945485E-2,4.5657973E-3,1.8015666E-2,-2.7075885E-3],"categories":[],"categories_nodes":[],"categories_segments":[],"categories_sizes":[],"default_left":[0,0,0,0,0,0,0],"id":12,"left_children":[1,3,5,-1,-1,-1,-1],"loss_changes":[3.751758E0,4.8858376E0,3.4551492E0,0E0,0E0,0E0,0E0],"parents":[2147483647,0,0,1,1,2,2],"right_children":[2,4,6,-1,-1,-1,-1],"split_conditions":[1.1E-1,1E0,1E0,-1.6945485E-2,4.5657973E-3,1.8015666E-2,-2.7075885E-3],"split_indices":[11,81,31,0,0,0,0],"split_type":[0,0,0,0,0,0,0],"sum_hessian":[1.753782E2,1.0071911E2,7.465909E1,5.8507187E1,4.2211926E1,3.0060886E1,4.4598206E1],"tree_param":{"num_deleted":"0","num_feature":"128","num_nodes":"7","size_leaf_vector":"1"}},{"base_weights":[-4.55169E-3,-1.60984E-1,1.6097714E-1,-1.33523075E-2,8.13217E-3,4.2663235E-3,2.7794916E-2],"categories":[],"categories_nodes":[],"categories_segments":[],"categories_sizes":[],"default_left":[0,0,0,0,0,0,0],"id":13,"left_children":[1,3,5,-1,-1,-1,-1],"loss_changes":[4.953579E0,3.590612E0,2.5418212E0,0E0,0E0,0E0,0E0],"parents":[2147483647,0,0,1,1,2,2],"right_children":[2,4,6,-1,-1,-1,-1],"split_conditions":[1E0,1E0,4.5E-1,-1.33523075E-2,8.13217E-3,4.2663235E-3,2.7794916E-2],"split_indices":[79,90,11,0,0,0,0],"split_type":[0,0,0,0,0,0,0],"sum_hessian":[1.8129778E2,9.328062E1,8.801716E1,7.091415E1,2.2366467E1,7.897005E1,9.047117E0],"tree_param":{"num_deleted":"0","num_feature":"128","num_nodes":"7","size_leaf_vector":"1"}},{"base_weights":[-2.0557567E-2,-1.4563172E-1,1.5369055E-1,-2.3043076E-2,1.8742459E-3,-1.2054155E-2,1.7041927E-2],"categories":[],"categories_nodes":[],"categories_segments":[],"categories_sizes":[],"default_left":[0,0,0,0,0,0,0],"id":14,"left_children":[1,3,5,-1,-1,-1,-1],"loss_changes":[4.0658555E0,6.3310504E0,6.191468E0,0E0,0E0,0E0,0E0],"parents":[2147483647,0,0,1,1,2,2],"right_children":[2,4,6,-1,-1,-1,-1],"split_conditions":[1E0,1E0,1E0,-2.3043076E-2,1.8742459E-3,-1.2054155E-2,1.7041927E-2],"split_indices":[80,79,25,0,0,0,0],"split_type":[0,0,0,0,0,0,0],"sum_hessian":[1.7642407E2,1.03181915E2,7.324216E1,3.5127373E1,6.805454E1,2.3091507E1,5.015065E1],"tree_param":{"num_deleted":"0","num_feature":"128","num_nodes":"7","size_leaf_vector":"1"}},{"base_weights":[-5.368318E-3,-2.7677914E-2,3.1144451E-2,-4.5245304E-3,9.758829E-3],"categories":[],"categories_nodes":[],"categories_segments":[],"categories_sizes":[],"default_left":[0,0,0,0,0],"id":15,"left_children":[1,-1,3,-1,-1],"loss_changes":[3.7849333E0,0E0,3.6394463E0,0E0,0E0],"parents":[2147483647,0,0,2,2],"right_children":[2,-1,4,-1,-1],"split_conditions":[1E0,-2.7677914E-2,1E0,-4.5245304E-3,9.758829E-3],"split_indices":[20,0,80,0,0],"split_type":[0,0,0,0,0],"sum_hessian":[1.7978938E2,6.805819E0,1.7298357E2,1.0061558E2,7.236799E1],"tree_param":{"num_deleted":"0","num_feature":"128","num_nodes":"5","size_leaf_vector":"1"}},{"base_weights":[1.607365E-2,-3.782641E-2,3.6993513E-1,1.5191115E-3,-2.971158E-2,8.279468E-3,2.6125524E-2],"categories":[],"categories_nodes":[],"categories_segments":[],"categories_sizes":[],"default_left":[0,0,0,0,0,0,0],"id":16,"left_children":[1,3,5,-1,-1,-1,-1],"loss_changes":[3.5610523E0,6.290735E0,3.361969E-1,0E0,0E0,0E0,0E0],"parents":[2147483647,0,0,1,1,2,2],"right_children":[2,4,6,-1,-1,-1,-1],"split_conditions":[5E-1,1E0,1E0,1.5191115E-3,-2.971158E-2,8.279468E-3,2.6125524E-2],"split_indices":[11,3,90,0,0,0,0],"split_type":[0,0,0,0,0,0,0],"sum_hessian":[1.780366E2,1.5837804E2,1.9658571E1,1.4529373E2,1.3084302E1,1.2860647E1,6.797924E0],"tree_param":{"num_deleted":"0","num_feature":"128","num_nodes":"7","size_leaf_vector":"1"}},{"base_weights":[4.4184333E-5,-1.8339585E-1,1.3761844E-1,-1.4318386E-2,5.2749356E-3,1.0046105E-2,-5.96304E-3],"categories":[],"categories_nodes":[],"categories_segments":[],"categories_sizes":[],"default_left":[0,0,0,0,0,0,0],"id":17,"left_children":[1,3,5,-1,-1,-1,-1],"loss_changes":[4.69803E0,2.5243874E0,1.8496611E0,0E0,0E0,0E0,0E0],"parents":[2147483647,0,0,1,1,2,2],"right_children":[2,4,6,-1,-1,-1,-1],"split_conditions":[1E0,1E0,1E0,-1.4318386E-2,5.2749356E-3,1.0046105E-2,-5.96304E-3],"split_indices":[78,83,85,0,0,0,0],"split_type":[0,0,0,0,0,0,0],"sum_hessian":[1.7615881E2,7.478113E1,1.0137769E2,5.5162914E1,1.9618212E1,8.220804E1,1.9169651E1],"tree_param":{"num_deleted":"0","num_feature":"128","num_nodes":"7","size_leaf_vector":"1"}},{"base_weights":[-1.9672734E-3,-6.050256E-2,2.0677052E-2,-1.0149947E-2,6.742573E-3],"categories":[],"categories_nodes":[],"categories_segments":[],"categories_sizes":[],"default_left":[0,0,0,0,0],"id":18,"left_children":[1,3,-1,-1,-1],"loss_changes":[4.6645207E0,4.8122687E0,0E0,0E0,0E0],"parents":[2147483647,0,0,1,1],"right_children":[2,4,-1,-1,-1],"split_conditions":[5E-1,1E0,2.0677052E-2,-1.0149947E-2,6.742573E-3],"split_indices":[11,80,0,0,0],"split_type":[0,0,0,0,0],"sum_hessian":[1.8163918E2,1.6295467E2,1.868451E1,9.411155E1,6.8843124E1],"tree_param":{"num_deleted":"0","num_feature":"128","num_nodes":"5","size_leaf_vector":"1"}},{"base_weights":[-1.0188251E-2,-1.435723E-1,1.3626437E-1,-2.224276E-2,3.0381829E-3,9.3974744E-4,1.3614672E-2],"categories":[],"categories_nodes":[],"categories_segments":[],"categories_sizes":[],"default_left":[0,0,0,0,0,0,0],"id":19,"left_children":[1,3,5,-1,-1,-1,-1],"loss_changes":[3.6297684E0,6.1104364E0,1.3925146E0,0E0,0E0,0E0,0E0],"parents":[2147483647,0,0,1,1,2,2],"right_children":[2,4,6,-1,-1,-1,-1],"split_conditions":[1E0,1E0,5E0,-2.224276E-2,3.0381829E-3,9.3974744E-4,1.3614672E-2],"split_indices":[79,80,6,0,0,0,0],"split_type":[0,0,0,0,0,0,0],"sum_hessian":[1.7580624E2,9.205972E1,8.374652E1,3.482567E1,5.723405E1,4.799272E1,3.57538E1],"tree_param":{"num_deleted":"0","num_feature":"128","num_nodes":"7","size_leaf_vector":"1"}},{"base_weights":[4.2064157E-3,-1.6160044E-1,1.7222597E-1,-2.1296164E-2,8.976262E-4,4.3545295E-3,2.8134493E-2],"categories":[],"categories_nodes":[],"categories_segments":[],"categories_sizes":[],"default_left":[0,0,0,0,0,0,0],"id":20,"left_children":[1,3,5,-1,-1,-1,-1],"loss_changes":[5.2498126E0,4.542741E0,2.8643491E0,0E0,0E0,0E0,0E0],"parents":[2147483647,0,0,1,1,2,2],"right_children":[2,4,6,-1,-1,-1,-1],"split_conditions":[1E0,1E0,4.5E-1,-2.1296164E-2,8.976262E-4,4.3545295E-3,2.8134493E-2],"split_indices":[79,80,11,0,0,0,0],"split_type":[0,0,0,0,0,0,0],"sum_hessian":[1.784485E2,8.99118E1,8.8536705E1,3.359516E1,5.6316635E1,7.770861E1,1.0828094E1],"tree_param":{"num_deleted":"0","num_feature":"128","num_nodes":"7","size_leaf_vector":"1"}},{"base_weights":[-1.1982096E-2,-1.2473055E-1,1.4239699E-1,-1.2048297E-2,1.0401879E-2,1.6602283E-2,3.5834593E-5],"categories":[],"categories_nodes":[],"categories_segments":[],"categories_sizes":[],"default_left":[0,0,0,0,0,0,0],"id":21,"left_children":[1,3,5,-1,-1,-1,-1],"loss_changes":[3.3046076E0,4.483649E0,2.1568182E0,0E0,0E0,0E0,0E0],"parents":[2147483647,0,0,1,1,2,2],"right_children":[2,4,6,-1,-1,-1,-1],"split_conditions":[5E0,1E0,1E0,-1.2048297E-2,1.0401879E-2,1.6602283E-2,3.5834593E-5],"split_indices":[6,91,31,0,0,0,0],"split_type":[0,0,0,0,0,0,0],"sum_hessian":[1.7975244E2,1.0443798E2,7.531447E1,7.842397E1,2.6014002E1,2.9332624E1,4.5981842E1],"tree_param":{"num_deleted":"0","num_feature":"128","num_nodes":"7","size_leaf_vector":"1"}},{"base_weights":[-9.564967E-3,-1.5000713E-1,1.3135989E-1,-2.093931E-2,2.0967599E-3,1.3399804E-2,-3.9393483E-3],"categories":[],"categories_nodes":[],"categories_segments":[],"categories_sizes":[],"default_left":[0,0,0,0,0,0,0],"id":22,"left_children":[1,3,5,-1,-1,-1,-1],"loss_changes":[3.5987325E0,4.777952E0,2.7167854E0,0E0,0E0,0E0,0E0],"parents":[2147483647,0,0,1,1,2,2],"right_children":[2,4,6,-1,-1,-1,-1],"split_conditions":[1E0,1E0,1E0,-2.093931E-2,2.0967599E-3,1.3399804E-2,-3.9393483E-3],"split_indices":[79,80,42,0,0,0,0],"split_type":[0,0,0,0,0,0,0],"sum_hessian":[1.7185147E2,8.591175E1,8.593972E1,3.3330086E1,5.258166E1,5.124448E1,3.4695244E1],"tree_param":{"num_deleted":"0","num_feature":"128","num_nodes":"7","size_leaf_vector":"1"}},{"base_weights":[2.5947107E-2,-1.2244052E-1,1.3845037E-1,-1.8202938E-2,5.4036523E-3,-4.2237835E-3,1.067141E-2],"categories":[],"categories_nodes":[],"categories_segments":[],"categories_sizes":[],"default_left":[0,0,0,0,0,0,0],"id":23,"left_children":[1,3,5,-1,-1,-1,-1],"loss_changes":[3.1668763E0,4.7787447E0,1.884537E0,0E0,0E0,0E0,0E0],"parents":[2147483647,0,0,1,1,2,2],"right_children":[2,4,6,-1,-1,-1,-1],"split_conditions":[1E0,1E0,1E0,-1.8202938E-2,5.4036523E-3,-4.2237835E-3,1.067141E-2],"split_indices":[78,80,25,0,0,0,0],"split_type":[0,0,0,0,0,0,0],"sum_hessian":[1.7962321E2,7.7267975E1,1.0235524E2,3.6311028E1,4.0956947E1,2.5601826E1,7.675341E1],"tree_param":{"num_deleted":"0","num_feature":"128","num_nodes":"7","size_leaf_vector":"1"}},{"base_weights":[-1.5382332E-2,-1.6820228E-1,1.00792654E-1,-1.176411E-2,1.0556678E-2,-6.788774E-3,9.944417E-3],"categories":[],"categories_nodes":[],"categories_segments":[],"categories_sizes":[],"default_left":[0,0,0,0,0,0,0],"id":24,"left_children":[1,3,5,-1,-1,-1,-1],"loss_changes":[3.2444172E0,2.2518828E0,2.553901E0,0E0,0E0,0E0,0E0],"parents":[2147483647,0,0,1,1,2,2],"right_children":[2,4,6,-1,-1,-1,-1],"split_conditions":[1E0,5E-1,1E0,-1.176411E-2,1.0556678E-2,-6.788774E-3,9.944417E-3],"split_indices":[78,11,10,0,0,0,0],"split_type":[0,0,0,0,0,0,0],"sum_hessian":[1.7296976E2,7.3736046E1,9.923371E1,6.426967E1,9.466377E0,2.8524145E1,7.0709564E1],"tree_param":{"num_deleted":"0","num_feature":"128","num_nodes":"7","size_leaf_vector":"1"}},{"base_weights":[-1.5847342E-3,-1.2237129E-1,1.1849738E-1,-1.9587977E-2,2.6197112E-3,2.0893821E-3,2.6233887E-2],"categories":[],"categories_nodes":[],"categories_segments":[],"categories_sizes":[],"default_left":[0,0,0,0,0,0,0],"id":25,"left_children":[1,3,5,-1,-1,-1,-1],"loss_changes":[2.7085319E0,4.4840884E0,2.8091466E0,0E0,0E0,0E0,0E0],"parents":[2147483647,0,0,1,1,2,2],"right_children":[2,4,6,-1,-1,-1,-1],"split_conditions":[1E0,1E0,4.5E-1,-1.9587977E-2,2.6197112E-3,2.0893821E-3,2.6233887E-2],"split_indices":[79,80,11,0,0,0,0],"split_type":[0,0,0,0,0,0,0],"sum_hessian":[1.7674109E2,8.8064575E1,8.867651E1,3.220885E1,5.5855724E1,7.922817E1,9.448342E0],"tree_param":{"num_deleted":"0","num_feature":"128","num_nodes":"7","size_leaf_vector":"1"}},{"base_weights":[-7.852241E-3,-6.365485E-2,3.389395E-1,-5.5883797E-3,1.2063302E-2,5.193587E-3,2.4914486E-2],"categories":[],"categories_nodes":[],"categories_segments":[],"categories_sizes":[],"default_left":[0,0,0,0,0,0,0],"id":26,"left_children":[1,3,5,-1,-1,-1,-1],"loss_changes":[3.5282154E0,2.4301267E0,6.884749E-1,0E0,0E0,0E0,0E0],"parents":[2147483647,0,0,1,1,2,2],"right_children":[2,4,6,-1,-1,-1,-1],"split_conditions":[5E-1,1E0,1E0,-5.5883797E-3,1.2063302E-2,5.193587E-3,2.4914486E-2],"split_indices":[11,100,79,0,0,0,0],"split_type":[0,0,0,0,0,0,0],"sum_hessian":[1.7174455E2,1.5145587E2,2.0288683E1,1.3355052E2,1.790535E1,1.1533746E1,8.754938E0],"tree_param":{"num_deleted":"0","num_feature":"128","num_nodes":"7","size_leaf_vector":"1"}},{"base_weights":[-1.131885E-2,-1.3381208E-1,1.0507858E-1,-1.875772E-2,9.055308E-4,-6.357518E-4,1.367532E-2],"categories":[],"categories_nodes":[],"categories_segments":[],"categories_sizes":[],"default_left":[0,0,0,0,0,0,0],"id":27,"left_children":[1,3,5,-1,-1,-1,-1],"loss_changes":[2.6997697E0,3.4092827E0,1.949073E0,0E0,0E0,0E0,0E0],"parents":[2147483647,0,0,1,1,2,2],"right_children":[2,4,6,-1,-1,-1,-1],"split_conditions":[1E0,1E0,5E0,-1.875772E-2,9.055308E-4,-6.357518E-4,1.367532E-2],"split_indices":[79,80,6,0,0,0,0],"split_type":[0,0,0,0,0,0,0],"sum_hessian":[1.794217E2,8.70572E1,9.236451E1,3.0792994E1,5.6264202E1,5.7072308E1,3.5292206E1],"tree_param":{"num_deleted":"0","num_feature":"128","num_nodes":"7","size_leaf_vector":"1"}},{"base_weights":[-8.2617515E-4,-1.7567307E-1,1.3069336E-1,-1.2840139E-2,1.364079E-2,3.3046975E-4,1.6604392E-2],"categories":[],"categories_nodes":[],"categories_segments":[],"categories_sizes":[],"default_left":[0,0,0,0,0,0,0],"id":28,"left_children":[1,3,5,-1,-1,-1,-1],"loss_changes":[4.1354666E0,3.1589658E0,2.5542917E0,0E0,0E0,0E0,0E0],"parents":[2147483647,0,0,1,1,2,2],"right_children":[2,4,6,-1,-1,-1,-1],"split_conditions":[1E0,5E-1,1.9E-1,-1.2840139E-2,1.364079E-2,3.3046975E-4,1.6604392E-2],"split_indices":[78,11,11,0,0,0,0],"split_type":[0,0,0,0,0,0,0],"sum_hessian":[1.698438E2,7.219136E1,9.765243E1,6.294238E1,9.248981E0,6.3619205E1,3.4033226E1],"tree_param":{"num_deleted":"0","num_feature":"128","num_nodes":"7","size_leaf_vector":"1"}},{"base_weights":[1.1993089E-2,-1.3377552E-1,1.5529005E-1,-1.9292098E-2,1.1563635E-3,4.3319594E-3,2.5043612E-2],"categories":[],"categories_nodes":[],"categories_segments":[],"categories_sizes":[],"default_left":[0,0,0,0,0,0,0],"id":29,"left_children":[1,3,5,-1,-1,-1,-1],"loss_changes":[3.8329759E0,3.6510284E0,1.9737613E0,0E0,0E0,0E0,0E0],"parents":[2147483647,0,0,1,1,2,2],"right_children":[2,4,6,-1,-1,-1,-1],"split_conditions":[1E0,1E0,4.5E-1,-1.9292098E-2,1.1563635E-3,4.3319594E-3,2.5043612E-2],"split_indices":[79,80,11,0,0,0,0],"split_type":[0,0,0,0,0,0,0],"sum_hessian":[1.7352693E2,8.6186295E1,8.734064E1,3.0266762E1,5.591953E1,7.80828E1,9.257837E0],"tree_param":{"num_deleted":"0","num_feature":"128","num_nodes":"7","size_leaf_vector":"1"}},{"base_weights":[-1.7729169E-2,-1.2740491E-1,1.2979896E-1,-1.7020708E-2,7.4807103E-3,1.45893395E-2,-3.1883342E-3],"categories":[],"categories_nodes":[],"categories_segments":[],"categories_sizes":[],"default_left":[0,0,0,0,0,0,0],"id":30,"left_children":[1,3,5,-1,-1,-1,-1],"loss_changes":[2.9707644E0,6.4448304E0,2.5572233E0,0E0,0E0,0E0,0E0],"parents":[2147483647,0,0,1,1,2,2],"right_children":[2,4,6,-1,-1,-1,-1],"split_conditions":[5E0,1E0,1E0,-1.7020708E-2,7.4807103E-3,1.45893395E-2,-3.1883342E-3],"split_indices":[6,81,45,0,0,0,0],"split_type":[0,0,0,0,0,0,0],"sum_hessian":[1.7349405E2,9.990467E1,7.358938E1,5.5830498E1,4.4074173E1,3.8681293E1,3.490808E1],"tree_param":{"num_deleted":"0","num_feature":"128","num_nodes":"7","size_leaf_vector":"1"}},{"base_weights":[-1.365494E-2,-2.288516E-1,7.1151376E-2,-3.0270904E-2,-7.816047E-4,7.43521E-3,-1.0052389E-2],"categories":[],"categories_nodes":[],"categories_segments":[],"categories_sizes":[],"default_left":[0,0,0,0,0,0,0],"id":31,"left_children":[1,3,5,-1,-1,-1,-1],"loss_changes":[3.4188392E0,4.1985693E0,2.9991212E0,0E0,0E0,0E0,0E0],"parents":[2147483647,0,0,1,1,2,2],"right_children":[2,4,6,-1,-1,-1,-1],"split_conditions":[1E0,1E0,1E0,-3.0270904E-2,-7.816047E-4,7.43521E-3,-1.0052389E-2],"split_indices":[10,31,15,0,0,0,0],"split_type":[0,0,0,0,0,0,0],"sum_hessian":[1.7787218E2,4.7881046E1,1.2999112E2,1.3985041E1,3.3896008E1,1.029328E2,2.7058329E1],"tree_param":{"num_deleted":"0","num_feature":"128","num_nodes":"7","size_leaf_vector":"1"}},{"base_weights":[-5.3530512E-3,-5.7016753E-2,3.268248E-1,-6.8358047E-4,-1.9801464E-2,5.7296595E-3,2.3314131E-2],"categories":[],"categories_nodes":[],"categories_segments":[],"categories_sizes":[],"default_left":[0,0,0,0,0,0,0],"id":32,"left_children":[1,3,5,-1,-1,-1,-1],"loss_changes":[3.149953E0,2.3005638E0,4.643867E-1,0E0,0E0,0E0,0E0],"parents":[2147483647,0,0,1,1,2,2],"right_children":[2,4,6,-1,-1,-1,-1],"split_conditions":[5E-1,1E0,1E0,-6.8358047E-4,-1.9801464E-2,5.7296595E-3,2.3314131E-2],"split_indices":[11,3,79,0,0,0,0],"split_type":[0,0,0,0,0,0,0],"sum_hessian":[1.7311809E2,1.5340132E2,1.9716768E1,1.4062328E2,1.2778041E1,1.1430289E1,8.286479E0],"tree_param":{"num_deleted":"0","num_feature":"128","num_nodes":"7","size_leaf_vector":"1"}},{"base_weights":[-1.03225E-2,-2.3876565E-2,1.8237984E-2,-3.0295567E-3,1.10460315E-2],"categories":[],"categories_nodes":[],"categories_segments":[],"categories_sizes":[],"default_left":[0,0,0,0,0],"id":33,"left_children":[1,-1,3,-1,-1],"loss_changes":[2.4359431E0,0E0,2.843426E0,0E0,0E0],"parents":[2147483647,0,0,2,2],"right_children":[2,-1,4,-1,-1],"split_conditions":[1E0,-2.3876565E-2,1E0,-3.0295567E-3,1.10460315E-2],"split_indices":[20,0,81,0,0],"split_type":[0,0,0,0,0],"sum_hessian":[1.7429025E2,5.512564E0,1.6877768E2,1.2404016E2,4.4737522E1],"tree_param":{"num_deleted":"0","num_feature":"128","num_nodes":"5","size_leaf_vector":"1"}},{"base_weights":[-6.307477E-3,-1.6309807E-1,1.11422636E-1,-1.4049666E-2,6.0380553E-3,-1.8078668E-5,1.3624757E-2],"categories":[],"categories_nodes":[],"categories_segments":[],"categories_sizes":[],"default_left":[0,0,0,0,0,0,0],"id":34,"left_children":[1,3,5,-1,-1,-1,-1],"loss_changes":[3.4627478E0,2.8592424E0,1.9324816E0,0E0,0E0,0E0,0E0],"parents":[2147483647,0,0,1,1,2,2],"right_children":[2,4,6,-1,-1,-1,-1],"split_conditions":[1E0,1E0,1.9E-1,-1.4049666E-2,6.0380553E-3,-1.8078668E-5,1.3624757E-2],"split_indices":[78,83,11,0,0,0,0],"split_type":[0,0,0,0,0,0,0],"sum_hessian":[1.7766907E2,7.53683E1,1.02300766E2,5.3287064E1,2.2081244E1,6.3335052E1,3.896571E1],"tree_param":{"num_deleted":"0","num_feature":"128","num_nodes":"7","size_leaf_vector":"1"}},{"base_weights":[-2.214824E-2,-6.844668E-2,2.8595325E-1,-1.1069004E-3,-2.2866901E-2,4.5237774E-3,2.2171775E-2],"categories":[],"categories_nodes":[],"categories_segments":[],"categories_sizes":[],"default_left":[0,0,0,0,0,0,0],"id":35,"left_children":[1,3,5,-1,-1,-1,-1],"loss_changes":[2.6974099E0,2.8752055E0,5.6201744E-1,0E0,0E0,0E0,0E0],"parents":[2147483647,0,0,1,1,2,2],"right_children":[2,4,6,-1,-1,-1,-1],"split_conditions":[5E-1,1E0,1E0,-1.1069004E-3,-2.2866901E-2,4.5237774E-3,2.2171775E-2],"split_indices":[11,3,79,0,0,0,0],"split_type":[0,0,0,0,0,0,0],"sum_hessian":[1.7723738E2,1.574644E2,1.9772974E1,1.4543127E2,1.2033138E1,1.2334773E1,7.438201E0],"tree_param":{"num_deleted":"0","num_feature":"128","num_nodes":"7","size_leaf_vector":"1"}},{"base_weights":[-8.124265E-3,-2.2875113E-2,1.8317426E-2,-3.736676E-3,7.589996E-3],"categories":[],"categories_nodes":[],"categories_segments":[],"categories_sizes":[],"default_left":[0,0,0,0,0],"id":36,"left_children":[1,-1,3,-1,-1],"loss_changes":[2.1503422E0,0E0,2.197928E0,0E0,0E0],"parents":[2147483647,0,0,2,2],"right_children":[2,-1,4,-1,-1],"split_conditions":[1E0,-2.2875113E-2,1E0,-3.736676E-3,7.589996E-3],"split_indices":[20,0,80,0,0],"split_type":[0,0,0,0,0],"sum_hessian":[1.7244362E2,5.0531697E0,1.6739044E2,9.992979E1,6.7460655E1],"tree_param":{"num_deleted":"0","num_feature":"128","num_nodes":"5","size_leaf_vector":"1"}},{"base_weights":[-1.22403E-2,-1.654041E-1,9.825794E-2,-1.1921513E-2,1.1098364E-2,-8.24901E-3,1.0044949E-2],"categories":[],"categories_nodes":[],"categories_segments":[],"categories_sizes":[],"default_left":[0,0,0,0,0,0,0],"id":37,"left_children":[1,3,5,-1,-1,-1,-1],"loss_changes":[3.0749404E0,2.4143727E0,3.0268078E0,0E0,0E0,0E0,0E0],"parents":[2147483647,0,0,1,1,2,2],"right_children":[2,4,6,-1,-1,-1,-1],"split_conditions":[1E0,5E-1,1E0,-1.1921513E-2,1.1098364E-2,-8.24901E-3,1.0044949E-2],"split_indices":[78,11,10,0,0,0,0],"split_type":[0,0,0,0,0,0,0],"sum_hessian":[1.7188612E2,7.099461E1,1.0089151E2,6.13513E1,9.643317E0,2.7451448E1,7.3440056E1],"tree_param":{"num_deleted":"0","num_feature":"128","num_nodes":"7","size_leaf_vector":"1"}},{"base_weights":[2.5573442E-2,-2.4632318E-2,3.222501E-1,-6.5302975E-3,5.987515E-3,5.9331837E-3,2.3044925E-2],"categories":[],"categories_nodes":[],"categories_segments":[],"categories_sizes":[],"default_left":[0,0,0,0,0,0,0],"id":38,"left_children":[1,3,5,-1,-1,-1,-1],"loss_changes":[2.6547472E0,2.4467866E0,4.538269E-1,0E0,0E0,0E0,0E0],"parents":[2147483647,0,0,1,1,2,2],"right_children":[2,4,6,-1,-1,-1,-1],"split_conditions":[5E-1,1E0,1E0,-6.5302975E-3,5.987515E-3,5.9331837E-3,2.3044925E-2],"split_indices":[11,80,79,0,0,0,0],"split_type":[0,0,0,0,0,0,0],"sum_hessian":[1.7056764E2,1.4980194E2,2.0765701E1,8.666722E1,6.3134724E1,1.2172028E1,8.593674E0],"tree_param":{"num_deleted":"0","num_feature":"128","num_nodes":"7","size_leaf_vector":"1"}},{"base_weights":[-1.0216186E-2,-1.6411373E-1,1.4363237E-1,-1.1905643E-2,8.029978E-3,3.9785155E-3,2.324893E-2],"categories":[],"categories_nodes":[],"categories_segments":[],"categories_sizes":[],"default_left":[0,0,0,0,0,0,0],"id":39,"left_children":[1,3,5,-1,-1,-1,-1],"loss_changes":[4.172539E0,2.3043942E0,1.6328666E0,0E0,0E0,0E0,0E0],"parents":[2147483647,0,0,1,1,2,2],"right_children":[2,4,6,-1,-1,-1,-1],"split_conditions":[1E0,1E0,4.5E-1,-1.1905643E-2,8.029978E-3,3.9785155E-3,2.324893E-2],"split_indices":[79,83,11,0,0,0,0],"split_type":[0,0,0,0,0,0,0],"sum_hessian":[1.662503E2,8.294514E1,8.330517E1,6.863692E1,1.4308226E1,7.4659485E1,8.645683E0],"tree_param":{"num_deleted":"0","num_feature":"128","num_nodes":"7","size_leaf_vector":"1"}},{"base_weights":[1.2956087E-2,-2.4725037E-2,2.6955304E-1,-6.4505227E-3,5.6908424E-3,5.188192E-3,1.9717542E-2],"categories":[],"categories_nodes":[],"categories_segments":[],"categories_sizes":[],"default_left":[0,0,0,0,0,0,0],"id":40,"left_children":[1,3,5,-1,-1,-1,-1],"loss_changes":[1.7193549E0,2.336378E0,2.660712E-1,0E0,0E0,0E0,0E0],"parents":[2147483647,0,0,1,1,2,2],"right_children":[2,4,6,-1,-1,-1,-1],"split_conditions":[5E-1,1E0,1E0,-6.4505227E-3,5.6908424E-3,5.188192E-3,1.9717542E-2],"split_indices":[11,80,79,0,0,0,0],"split_type":[0,0,0,0,0,0,0],"sum_hessian":[1.6937746E2,1.5162903E2,1.7748428E1,8.6706184E1,6.4922844E1,1.1555139E1,6.193289E0],"tree_param":{"num_deleted":"0","num_feature":"128","num_nodes":"7","size_leaf_vector":"1"}},{"base_weights":[1.7458675E-2,-3.30689E-2,1.6401613E-2,-2.2734325E-2,8.230302E-4],"categories":[],"categories_nodes":[],"categories_segments":[],"categories_sizes":[],"default_left":[0,0,0,0,0],"id":41,"left_children":[1,3,-1,-1,-1],"loss_changes":[2.834932E0,3.314847E0,0E0,0E0,0E0],"parents":[2147483647,0,0,1,1],"right_children":[2,4,-1,-1,-1],"split_conditions":[5E-1,3E0,1.6401613E-2,-2.2734325E-2,8.230302E-4],"split_indices":[11,4,0,0,0],"split_type":[0,0,0,0,0],"sum_hessian":[1.7219856E2,1.5194592E2,2.0252642E1,1.1673682E1,1.4027225E2],"tree_param":{"num_deleted":"0","num_feature":"128","num_nodes":"5","size_leaf_vector":"1"}},{"base_weights":[1.8432854E-2,-1.4648508E-1,8.209973E-2,-2.6340485E-2,9.183693E-3,-1.1127115E-3,1.2235511E-2],"categories":[],"categories_nodes":[],"categories_segments":[],"categories_sizes":[],"default_left":[0,0,0,0,0,0,0],"id":42,"left_children":[1,3,5,-1,-1,-1,-1],"loss_changes":[1.9371533E0,6.961484E0,2.2701983E0,0E0,0E0,0E0,0E0],"parents":[2147483647,0,0,1,1,2,2],"right_children":[2,4,6,-1,-1,-1,-1],"split_conditions":[1E0,1E0,1E0,-2.6340485E-2,9.183693E-3,-1.1127115E-3,1.2235511E-2],"split_indices":[10,41,80,0,0,0,0],"split_type":[0,0,0,0,0,0,0],"sum_hessian":[1.7376721E2,4.6587193E1,1.27180016E2,2.0264963E1,2.6322227E1,8.009526E1,4.708476E1],"tree_param":{"num_deleted":"0","num_feature":"128","num_nodes":"7","size_leaf_vector":"1"}},{"base_weights":[1.577753E-2,-3.0961523E-2,1.4882164E-2,-9.6306475E-3,4.220291E-3],"categories":[],"categories_nodes":[],"categories_segments":[],"categories_sizes":[],"default_left":[0,0,0,0,0],"id":43,"left_children":[1,3,-1,-1,-1],"loss_changes":[2.3702295E0,2.987854E0,0E0,0E0,0E0],"parents":[2147483647,0,0,1,1],"right_children":[2,4,-1,-1,-1],"split_conditions":[5E-1,1E0,1.4882164E-2,-9.6306475E-3,4.220291E-3],"split_indices":[11,78,0,0,0],"split_type":[0,0,0,0,0],"sum_hessian":[1.7141777E2,1.5085391E2,2.0563862E1,6.1430447E1,8.942346E1],"tree_param":{"num_deleted":"0","num_feature":"128","num_nodes":"5","size_leaf_vector":"1"}},{"base_weights":[-8.924581E-3,-5.3875934E-2,2.8039148E-1,-1.6443005E-2,-6.54636E-5,5.293885E-3,2.0664096E-2],"categories":[],"categories_nodes":[],"categories_segments":[],"categories_sizes":[],"default_left":[0,0,0,0,0,0,0],"id":44,"left_children":[1,3,5,-1,-1,-1,-1],"loss_changes":[2.3371878E0,2.2342174E0,3.4225726E-1,0E0,0E0,0E0,0E0],"parents":[2147483647,0,0,1,1,2,2],"right_children":[2,4,6,-1,-1,-1,-1],"split_conditions":[5E-1,1E0,1E0,-1.6443005E-2,-6.54636E-5,5.293885E-3,2.0664096E-2],"split_indices":[11,28,79,0,0,0,0],"split_type":[0,0,0,0,0,0,0],"sum_hessian":[1.6890466E2,1.4971257E2,1.9192095E1,1.9808905E1,1.2990367E2,1.2180335E1,7.0117607E0],"tree_param":{"num_deleted":"0","num_feature":"128","num_nodes":"7","size_leaf_vector":"1"}},{"base_weights":[-5.2879276E-3,-1.09338745E-1,1.306431E-1,-2.3535417E-2,-3.7136956E-4,1.6524315E-2,-1.001248E-3],"categories":[],"categories_nodes":[],"categories_segments":[],"categories_sizes":[],"default_left":[0,0,0,0,0,0,0],"id":45,"left_children":[1,3,5,-1,-1,-1,-1],"loss_changes":[2.5000732E0,3.6646786E0,2.3433886E0,0E0,0E0,0E0,0E0],"parents":[2147483647,0,0,1,1,2,2],"right_children":[2,4,6,-1,-1,-1,-1],"split_conditions":[5E0,1E0,1E0,-2.3535417E-2,-3.7136956E-4,1.6524315E-2,-1.001248E-3],"split_indices":[6,30,31,0,0,0,0],"split_type":[0,0,0,0,0,0,0],"sum_hessian":[1.6671219E2,9.498352E1,7.172867E1,1.6913958E1,7.8069565E1,2.8267645E1,4.346102E1],"tree_param":{"num_deleted":"0","num_feature":"128","num_nodes":"7","size_leaf_vector":"1"}},{"base_weights":[2.7487166E-3,-1.16409734E-1,1.2792502E-1,-2.0538546E-2,-2.0649212E-3,3.4660127E-3,2.1913322E-2],"categories":[],"categories_nodes":[],"categories_segments":[],"categories_sizes":[],"default_left":[0,0,0,0,0,0,0],"id":46,"left_children":[1,3,5,-1,-1,-1,-1],"loss_changes":[2.6828136E0,1.9538668E0,1.4424944E0,0E0,0E0,0E0,0E0],"parents":[2147483647,0,0,1,1,2,2],"right_children":[2,4,6,-1,-1,-1,-1],"split_conditions":[1E0,1E0,4.5E-1,-2.0538546E-2,-2.0649212E-3,3.4660127E-3,2.1913322E-2],"split_indices":[79,25,11,0,0,0,0],"split_type":[0,0,0,0,0,0,0],"sum_hessian":[1.6987178E2,8.7207214E1,8.266456E1,1.3186233E1,7.402098E1,7.467903E1,7.985526E0],"tree_param":{"num_deleted":"0","num_feature":"128","num_nodes":"7","size_leaf_vector":"1"}},{"base_weights":[1.5725786E-2,-3.171842E-2,3.2028753E-1,7.8425737E-4,-2.2004006E-2,1.896136E-2,3.1391643E-3],"categories":[],"categories_nodes":[],"categories_segments":[],"categories_sizes":[],"default_left":[0,0,0,0,0,0,0],"id":47,"left_children":[1,3,5,-1,-1,-1,-1],"loss_changes":[2.5816274E0,3.0560818E0,2.4607849E-1,0E0,0E0,0E0,0E0],"parents":[2147483647,0,0,1,1,2,2],"right_children":[2,4,6,-1,-1,-1,-1],"split_conditions":[5E-1,1E0,1E0,7.8425737E-4,-2.2004006E-2,1.896136E-2,3.1391643E-3],"split_indices":[11,3,80,0,0,0,0],"split_type":[0,0,0,0,0,0,0],"sum_hessian":[1.7014786E2,1.5109047E2,1.9057384E1,1.3968362E2,1.1406846E1,1.3584533E1,5.4728527E0],"tree_param":{"num_deleted":"0","num_feature":"128","num_nodes":"7","size_leaf_vector":"1"}},{"base_weights":[-2.32234E-3,-1.40987E-1,4.9961273E-2,-2.2012936E-2,5.6640506E-3,-2.3071873E-3,1.0653548E-2],"categories":[],"categories_nodes":[],"categories_segments":[],"categories_sizes":[],"default_left":[0,0,0,0,0,0,0],"id":48,"left_children":[1,3,5,-1,-1,-1,-1],"loss_changes":[1.3144602E0,4.025361E0,2.1156456E0,0E0,0E0,0E0,0E0],"parents":[2147483647,0,0,1,1,2,2],"right_children":[2,4,6,-1,-1,-1,-1],"split_conditions":[1E0,1E0,1E0,-2.2012936E-2,5.6640506E-3,-2.3071873E-3,1.0653548E-2],"split_indices":[10,41,80,0,0,0,0],"split_type":[0,0,0,0,0,0,0],"sum_hessian":[1.7144969E2,4.462199E1,1.268277E2,1.8817062E1,2.580493E1,8.206192E1,4.4765778E1],"tree_param":{"num_deleted":"0","num_feature":"128","num_nodes":"7","size_leaf_vector":"1"}},{"base_weights":[-8.321757E-4,-5.827427E-2,3.815144E-1,5.4965738E-5,-2.514118E-2,7.30495E-3,2.7162937E-2],"categories":[],"categories_nodes":[],"categories_segments":[],"categories_sizes":[],"default_left":[0,0,0,0,0,0,0],"id":49,"left_children":[1,3,5,-1,-1,-1,-1],"loss_changes":[3.9722974E0,4.1514163E0,5.027139E-1,0E0,0E0,0E0,0E0],"parents":[2147483647,0,0,1,1,2,2],"right_children":[2,4,6,-1,-1,-1,-1],"split_conditions":[5E-1,1E0,1E0,5.4965738E-5,-2.514118E-2,7.30495E-3,2.7162937E-2],"split_indices":[11,3,83,0,0,0,0],"split_type":[0,0,0,0,0,0,0],"sum_hessian":[1.708035E2,1.5217876E2,1.8624739E1,1.3864862E2,1.3530143E1,1.1460534E1,7.1642046E0],"tree_param":{"num_deleted":"0","num_feature":"128","num_nodes":"7","size_leaf_vector":"1"}},{"base_weights":[-1.2327317E-3,-6.25683E-2,2.0172888E-1,-1.0727856E-2,2.9844143E-3,2.0935403E-2,-1.3552E-2],"categories":[],"categories_nodes":[],"categories_segments":[],"categories_sizes":[],"default_left":[0,0,0,0,0,0,0],"id":50,"left_children":[1,3,5,-1,-1,-1,-1],"loss_changes":[2.3035035E0,2.7029963E0,4.9732046E0,0E0,0E0,0E0,0E0],"parents":[2147483647,0,0,1,1,2,2],"right_children":[2,4,6,-1,-1,-1,-1],"split_conditions":[1E0,1E0,1E0,-1.0727856E-2,2.9844143E-3,2.0935403E-2,-1.3552E-2],"split_indices":[83,45,41,0,0,0,0],"split_type":[0,0,0,0,0,0,0],"sum_hessian":[1.7496918E2,1.3701997E2,3.7949203E1,5.939969E1,7.7620285E1,2.640313E1,1.1546075E1],"tree_param":{"num_deleted":"0","num_feature":"128","num_nodes":"7","size_leaf_vector":"1"}},{"base_weights":[-1.0297361E-2,-6.463716E-2,1.7481758E-1,-1.2884043E-2,2.8770005E-3,2.0518972E-2,-1.6283229E-2],"categories":[],"categories_nodes":[],"categories_segments":[],"categories_sizes":[],"default_left":[0,0,0,0,0,0,0],"id":51,"left_children":[1,3,5,-1,-1,-1,-1],"loss_changes":[1.8164562E0,3.3503458E0,5.5082655E0,0E0,0E0,0E0,0E0],"parents":[2147483647,0,0,1,1,2,2],"right_children":[2,4,6,-1,-1,-1,-1],"split_conditions":[1E0,1E0,1E0,-1.2884043E-2,2.8770005E-3,2.0518972E-2,-1.6283229E-2],"split_indices":[83,78,41,0,0,0,0],"split_type":[0,0,0,0,0,0,0],"sum_hessian":[1.699616E2,1.3390764E2,3.6053955E1,4.9752216E1,8.415542E1,2.5127403E1,1.0926551E1],"tree_param":{"num_deleted":"0","num_feature":"128","num_nodes":"7","size_leaf_vector":"1"}},{"base_weights":[3.218473E-2,-6.906848E-2,1.4324036E-1,-7.99843E-3,9.211037E-3,-2.3592708E-3,1.01762405E-2],"categories":[],"categories_nodes":[],"categories_segments":[],"categories_sizes":[],"default_left":[0,0,0,0,0,0,0],"id":52,"left_children":[1,3,5,-1,-1,-1,-1],"loss_changes":[2.0389564E0,2.3558333E0,1.0353339E0,0E0,0E0,0E0,0E0],"parents":[2147483647,0,0,1,1,2,2],"right_children":[2,4,6,-1,-1,-1,-1],"split_conditions":[1E0,1E0,5E0,-7.99843E-3,9.211037E-3,-2.3592708E-3,1.01762405E-2],"split_indices":[79,83,4,0,0,0,0],"split_type":[0,0,0,0,0,0,0],"sum_hessian":[1.7192625E2,9.092092E1,8.100534E1,6.8264435E1,2.2656485E1,1.9739351E1,6.1265987E1],"tree_param":{"num_deleted":"0","num_feature":"128","num_nodes":"7","size_leaf_vector":"1"}},{"base_weights":[1.7885087E-2,-1.9394964E-2,2.2718732E-1,1.2950309E-3,-2.3463665E-2,-1.3068327E-3,1.904758E-2],"categories":[],"categories_nodes":[],"categories_segments":[],"categories_sizes":[],"default_left":[0,0,0,0,0,0,0],"id":53,"left_children":[1,3,5,-1,-1,-1,-1],"loss_changes":[1.3864642E0,3.179223E0,1.094892E0,0E0,0E0,0E0,0E0],"parents":[2147483647,0,0,1,1,2,2],"right_children":[2,4,6,-1,-1,-1,-1],"split_conditions":[5E-1,1E0,1E0,1.2950309E-3,-2.3463665E-2,-1.3068327E-3,1.904758E-2],"split_indices":[11,3,83,0,0,0,0],"split_type":[0,0,0,0,0,0,0],"sum_hessian":[1.6986455E2,1.4803403E2,2.1830532E1,1.3877383E2,9.2601795E0,9.813337E0,1.2017195E1],"tree_param":{"num_deleted":"0","num_feature":"128","num_nodes":"7","size_leaf_vector":"1"}},{"base_weights":[4.983909E-3,-4.0211473E-2,2.599484E-1,-6.398386E-3,8.002269E-3,2.1046423E-3,1.892839E-2],"categories":[],"categories_nodes":[],"categories_segments":[],"categories_sizes":[],"default_left":[0,0,0,0,0,0,0],"id":54,"left_children":[1,3,5,-1,-1,-1,-1],"loss_changes":[2.117356E0,2.8537116E0,6.349534E-1,0E0,0E0,0E0,0E0],"parents":[2147483647,0,0,1,1,2,2],"right_children":[2,4,6,-1,-1,-1,-1],"split_conditions":[5E-1,1E0,1E0,-6.398386E-3,8.002269E-3,2.1046423E-3,1.892839E-2],"split_indices":[11,81,83,0,0,0,0],"split_type":[0,0,0,0,0,0,0],"sum_hessian":[1.7421136E2,1.515575E2,2.2653873E1,1.066336E2,4.49239E1,1.0374472E1,1.2279403E1],"tree_param":{"num_deleted":"0","num_feature":"128","num_nodes":"7","size_leaf_vector":"1"}},{"base_weights":[2.4431715E-2,-3.5852756E-2,2.1878241E-1,-4.7204304E-3,1.5034057E-2,1.8279372E-2,-9.972426E-3],"categories":[],"categories_nodes":[],"categories_segments":[],"categories_sizes":[],"default_left":[0,0,0,0,0,0,0],"id":55,"left_children":[1,3,5,-1,-1,-1,-1],"loss_changes":[2.057456E0,2.8174706E0,2.9117472E0,0E0,0E0,0E0,0E0],"parents":[2147483647,0,0,1,1,2,2],"right_children":[2,4,6,-1,-1,-1,-1],"split_conditions":[1E0,1E0,1E0,-4.7204304E-3,1.5034057E-2,1.8279372E-2,-9.972426E-3],"split_indices":[83,97,44,0,0,0,0],"split_type":[0,0,0,0,0,0,0],"sum_hessian":[1.6725839E2,1.3077249E2,3.64859E1,1.1445502E2,1.6317476E1,2.7472145E1,9.013757E0],"tree_param":{"num_deleted":"0","num_feature":"128","num_nodes":"7","size_leaf_vector":"1"}},{"base_weights":[-4.25374E-3,-3.7853178E-2,2.3198085E-1,-4.4877846E-3,8.523367E-3,2.3572367E-2,-7.828611E-3],"categories":[],"categories_nodes":[],"categories_segments":[],"categories_sizes":[],"default_left":[0,0,0,0,0,0,0],"id":56,"left_children":[1,3,5,-1,-1,-1,-1],"loss_changes":[1.4481024E0,1.7976123E0,2.484005E0,0E0,0E0,0E0,0E0],"parents":[2147483647,0,0,1,1,2,2],"right_children":[2,4,6,-1,-1,-1,-1],"split_conditions":[1E0,1E0,1E0,-4.4877846E-3,8.523367E-3,2.3572367E-2,-7.828611E-3],"split_indices":[100,82,32,0,0,0,0],"split_type":[0,0,0,0,0,0,0],"sum_hessian":[1.7190997E2,1.5417992E2,1.7730051E1,1.2570626E2,2.8473656E1,1.0309544E1,7.4205084E0],"tree_param":{"num_deleted":"0","num_feature":"128","num_nodes":"7","size_leaf_vector":"1"}},{"base_weights":[-3.2589766E-3,-5.4279327E-2,1.8093984E-1,-1.5654E-2,1.4852799E-3,1.913196E-2,-1.3757654E-2],"categories":[],"categories_nodes":[],"categories_segments":[],"categories_sizes":[],"default_left":[0,0,0,0,0,0,0],"id":57,"left_children":[1,3,5,-1,-1,-1,-1],"loss_changes":[1.7033974E0,3.126242E0,4.1450143E0,0E0,0E0,0E0,0E0],"parents":[2147483647,0,0,1,1,2,2],"right_children":[2,4,6,-1,-1,-1,-1],"split_conditions":[1E0,-1.7E-1,1E0,-1.5654E-2,1.4852799E-3,1.913196E-2,-1.3757654E-2],"split_indices":[83,11,41,0,0,0,0],"split_type":[0,0,0,0,0,0,0],"sum_hessian":[1.7102794E2,1.3669269E2,3.4335247E1,3.0149023E1,1.0654366E2,2.4365337E1,9.969909E0],"tree_param":{"num_deleted":"0","num_feature":"128","num_nodes":"7","size_leaf_vector":"1"}},{"base_weights":[7.820136E-3,-5.545906E-2,1.7268059E-1,6.6948496E-3,-1.1845885E-2,-1.6711194E-2,2.5948767E-2],"categories":[],"categories_nodes":[],"categories_segments":[],"categories_sizes":[],"default_left":[0,0,0,0,0,0,0],"id":58,"left_children":[1,3,5,-1,-1,-1,-1],"loss_changes":[1.8587857E0,4.598778E0,9.53244E0,0E0,0E0,0E0,0E0],"parents":[2147483647,0,0,1,1,2,2],"right_children":[2,4,6,-1,-1,-1,-1],"split_conditions":[1E0,1E0,1E0,6.6948496E-3,-1.1845885E-2,-1.6711194E-2,2.5948767E-2],"split_indices":[81,45,45,0,0,0,0],"split_type":[0,0,0,0,0,0,0],"sum_hessian":[1.6858714E2,1.2422373E2,4.4363407E1,6.143035E1,6.279338E1,1.8076866E1,2.628654E1],"tree_param":{"num_deleted":"0","num_feature":"128","num_nodes":"7","size_leaf_vector":"1"}},{"base_weights":[-3.0451121E-3,-6.175414E-2,1.9453195E-1,-5.184832E-3,1.0628288E-2,1.6585203E-2,-4.321396E-3],"categories":[],"categories_nodes":[],"categories_segments":[],"categories_sizes":[],"default_left":[0,0,0,0,0,0,0],"id":59,"left_children":[1,3,5,-1,-1,-1,-1],"loss_changes":[2.0814953E0,1.6996322E0,1.7283095E0,0E0,0E0,0E0,0E0],"parents":[2147483647,0,0,1,1,2,2],"right_children":[2,4,6,-1,-1,-1,-1],"split_conditions":[1E0,1E0,1E0,-5.184832E-3,1.0628288E-2,1.6585203E-2,-4.321396E-3],"split_indices":[83,100,45,0,0,0,0],"split_type":[0,0,0,0,0,0,0],"sum_hessian":[1.6926784E2,1.3314246E2,3.6125397E1,1.18182686E2,1.4959763E1,2.3667324E1,1.2458071E1],"tree_param":{"num_deleted":"0","num_feature":"128","num_nodes":"7","size_leaf_vector":"1"}},{"base_weights":[1.7836658E-2,-2.3363508E-2,4.5731865E-2,-7.9317775E-4,1.15602985E-2],"categories":[],"categories_nodes":[],"categories_segments":[],"categories_sizes":[],"default_left":[0,0,0,0,0],"id":60,"left_children":[1,-1,3,-1,-1],"loss_changes":[2.5877948E0,0E0,2.0509868E0,0E0,0E0],"parents":[2147483647,0,0,2,2],"right_children":[2,-1,4,-1,-1],"split_conditions":[1E0,-2.3363508E-2,1E0,-7.9317775E-4,1.15602985E-2],"split_indices":[20,0,81,0,0],"split_type":[0,0,0,0,0],"sum_hessian":[1.783373E2,5.414952E0,1.7292235E2,1.3324457E2,3.9677788E1],"tree_param":{"num_deleted":"0","num_feature":"128","num_nodes":"5","size_leaf_vector":"1"}},{"base_weights":[-1.1765722E-3,-2.230415E-2,2.4238665E-2,-4.2092204E-3,6.6160457E-3],"categories":[],"categories_nodes":[],"categories_segments":[],"categories_sizes":[],"default_left":[0,0,0,0,0],"id":61,"left_children":[1,-1,3,-1,-1],"loss_changes":[2.0977654E0,0E0,2.1148412E0,0E0,0E0],"parents":[2147483647,0,0,2,2],"right_children":[2,-1,4,-1,-1],"split_conditions":[1E0,-2.230415E-2,5E0,-4.2092204E-3,6.6160457E-3],"split_indices":[20,0,6,0,0],"split_type":[0,0,0,0,0],"sum_hessian":[1.7574028E2,5.0245233E0,1.7071576E2,8.5775406E1,8.4940346E1],"tree_param":{"num_deleted":"0","num_feature":"128","num_nodes":"5","size_leaf_vector":"1"}},{"base_weights":[2.2175178E-2,-3.2226242E-2,2.5577378E-1,-5.8552874E-3,3.8913887E-3,-7.370166E-3,1.9551642E-2],"categories":[],"categories_nodes":[],"categories_segments":[],"categories_sizes":[],"default_left":[0,0,0,0,0,0,0],"id":62,"left_children":[1,3,5,-1,-1,-1,-1],"loss_changes":[2.329396E0,1.4513091E0,2.1734784E0,0E0,0E0,0E0,0E0],"parents":[2147483647,0,0,1,1,2,2],"right_children":[2,4,6,-1,-1,-1,-1],"split_conditions":[1E0,1E0,5E0,-5.8552874E-3,3.8913887E-3,-7.370166E-3,1.9551642E-2],"split_indices":[82,79,6,0,0,0,0],"split_type":[0,0,0,0,0,0,0],"sum_hessian":[1.7505708E2,1.4548593E2,2.9571152E1,8.195642E1,6.3529522E1,7.315715E0,2.2255436E1],"tree_param":{"num_deleted":"0","num_feature":"128","num_nodes":"7","size_leaf_vector":"1"}},{"base_weights":[8.499658E-3,-3.828803E-2,2.0379314E-1,-6.9681774E-3,4.430041E-3,1.7082185E-2,-1.0315805E-2],"categories":[],"categories_nodes":[],"categories_segments":[],"categories_sizes":[],"default_left":[0,0,0,0,0,0,0],"id":63,"left_children":[1,3,5,-1,-1,-1,-1],"loss_changes":[1.652646E0,1.9429024E0,2.326725E0,0E0,0E0,0E0,0E0],"parents":[2147483647,0,0,1,1,2,2],"right_children":[2,4,6,-1,-1,-1,-1],"split_conditions":[1E0,1E0,1E0,-6.9681774E-3,4.430041E-3,1.7082185E-2,-1.0315805E-2],"split_indices":[82,79,15,0,0,0,0],"split_type":[0,0,0,0,0,0,0],"sum_hessian":[1.7159772E2,1.4167538E2,2.9922335E1,7.858533E1,6.309006E1,2.3019487E1,6.902848E0],"tree_param":{"num_deleted":"0","num_feature":"128","num_nodes":"7","size_leaf_vector":"1"}},{"base_weights":[4.5463527E-3,4.975554E-2,-2.3374945E-1,-1.3806381E-3,7.3802248E-3,-2.202637E-2,-4.7807405E-3],"categories":[],"categories_nodes":[],"categories_segments":[],"categories_sizes":[],"default_left":[0,0,0,0,0,0,0],"id":64,"left_children":[1,3,5,-1,-1,-1,-1],"loss_changes":[1.9251182E0,1.1543158E0,6.038034E-1,0E0,0E0,0E0,0E0],"parents":[2147483647,0,0,1,1,2,2],"right_children":[2,4,6,-1,-1,-1,-1],"split_conditions":[1E0,5E0,5E0,-1.3806381E-3,7.3802248E-3,-2.202637E-2,-4.7807405E-3],"split_indices":[85,6,6,0,0,0,0],"split_type":[0,0,0,0,0,0,0],"sum_hessian":[1.6829796E2,1.4478545E2,2.3512506E1,8.2858765E1,6.192668E1,5.03295E0,1.8479557E1],"tree_param":{"num_deleted":"0","num_feature":"128","num_nodes":"7","size_leaf_vector":"1"}},{"base_weights":[-1.1111568E-2,-1.5819943E-1,4.213123E-2,-1.7542236E-2,7.403694E-3,-3.5356134E-3,7.443284E-3],"categories":[],"categories_nodes":[],"categories_segments":[],"categories_sizes":[],"default_left":[0,0,0,0,0,0,0],"id":65,"left_children":[1,3,5,-1,-1,-1,-1],"loss_changes":[1.3994815E0,3.0573406E0,1.6428597E0,0E0,0E0,0E0,0E0],"parents":[2147483647,0,0,1,1,2,2],"right_children":[2,4,6,-1,-1,-1,-1],"split_conditions":[1E0,1E0,1.9E-1,-1.7542236E-2,7.403694E-3,-3.5356134E-3,7.443284E-3],"split_indices":[10,43,11,0,0,0,0],"split_type":[0,0,0,0,0,0,0],"sum_hessian":[1.6944661E2,4.2415016E1,1.2703159E2,2.5590809E1,1.6824207E1,6.256893E1,6.446266E1],"tree_param":{"num_deleted":"0","num_feature":"128","num_nodes":"7","size_leaf_vector":"1"}},{"base_weights":[1.9507907E-2,-9.180669E-3,2.8439158E-1,-5.6438716E-3,4.0170266E-3,2.3922158E-2,-2.9687646E-3],"categories":[],"categories_nodes":[],"categories_segments":[],"categories_sizes":[],"default_left":[0,0,0,0,0,0,0],"id":66,"left_children":[1,3,5,-1,-1,-1,-1],"loss_changes":[1.3801254E0,1.5971155E0,1.32521E0,0E0,0E0,0E0,0E0],"parents":[2147483647,0,0,1,1,2,2],"right_children":[2,4,6,-1,-1,-1,-1],"split_conditions":[1E0,1E0,3.3E0,-5.6438716E-3,4.0170266E-3,2.3922158E-2,-2.9687646E-3],"split_indices":[86,78,2,0,0,0,0],"split_type":[0,0,0,0,0,0,0],"sum_hessian":[1.7489821E2,1.6216176E2,1.2736441E1,7.452793E1,8.7633835E1,6.8889146E0,5.847526E0],"tree_param":{"num_deleted":"0","num_feature":"128","num_nodes":"7","size_leaf_vector":"1"}},{"base_weights":[2.0914445E-2,-1.3578731E-1,7.988958E-2,-1.6084915E-2,8.292158E-3,-7.753562E-4,1.1967596E-2],"categories":[],"categories_nodes":[],"categories_segments":[],"categories_sizes":[],"default_left":[0,0,0,0,0,0,0],"id":67,"left_children":[1,3,5,-1,-1,-1,-1],"loss_changes":[1.6689459E0,3.04976E0,1.9975786E0,0E0,0E0,0E0,0E0],"parents":[2147483647,0,0,1,1,2,2],"right_children":[2,4,6,-1,-1,-1,-1],"split_conditions":[1E0,1E0,1E0,-1.6084915E-2,8.292158E-3,-7.753562E-4,1.1967596E-2],"split_indices":[10,15,80,0,0,0,0],"split_type":[0,0,0,0,0,0,0],"sum_hessian":[1.6972322E2,4.462875E1,1.25094475E2,2.7404953E1,1.7223795E1,8.109437E1,4.4000107E1],"tree_param":{"num_deleted":"0","num_feature":"128","num_nodes":"7","size_leaf_vector":"1"}},{"base_weights":[-1.8111764E-2,-6.384923E-2,1.679311E-1,-5.278477E-3,9.150007E-3,-1.1199724E-2,1.523105E-2],"categories":[],"categories_nodes":[],"categories_segments":[],"categories_sizes":[],"default_left":[0,0,0,0,0,0,0],"id":68,"left_children":[1,3,5,-1,-1,-1,-1],"loss_changes":[1.5153052E0,1.5539005E0,2.230918E0,0E0,0E0,0E0,0E0],"parents":[2147483647,0,0,1,1,2,2],"right_children":[2,4,6,-1,-1,-1,-1],"split_conditions":[1E0,1E0,5E0,-5.278477E-3,9.150007E-3,-1.1199724E-2,1.523105E-2],"split_indices":[82,97,6,0,0,0,0],"split_type":[0,0,0,0,0,0,0],"sum_hessian":[1.6677946E2,1.3650465E2,3.02748E1,1.1921727E2,1.7287394E1,7.002701E0,2.3272099E1],"tree_param":{"num_deleted":"0","num_feature":"128","num_nodes":"7","size_leaf_vector":"1"}},{"base_weights":[1.657545E-2,-3.1484794E-2,2.626088E-1,2.2363884E-4,-1.9936772E-2,5.005255E-3,2.429997E-2],"categories":[],"categories_nodes":[],"categories_segments":[],"categories_sizes":[],"default_left":[0,0,0,0,0,0,0],"id":69,"left_children":[1,3,5,-1,-1,-1,-1],"loss_changes":[2.1660984E0,2.053014E0,8.421788E-1,0E0,0E0,0E0,0E0],"parents":[2147483647,0,0,1,1,2,2],"right_children":[2,4,6,-1,-1,-1,-1],"split_conditions":[5E-1,1E0,1E0,2.2363884E-4,-1.9936772E-2,5.005255E-3,2.429997E-2],"split_indices":[11,3,86,0,0,0,0],"split_type":[0,0,0,0,0,0,0],"sum_hessian":[1.7469228E2,1.49792E2,2.4900274E1,1.409324E2,8.859611E0,1.8606043E1,6.2942314E0],"tree_param":{"num_deleted":"0","num_feature":"128","num_nodes":"7","size_leaf_vector":"1"}},{"base_weights":[-2.0565642E-3,-3.2994233E-2,2.829922E-1,-6.129719E-3,4.079526E-3,2.4307178E-2,-5.0008595E-3],"categories":[],"categories_nodes":[],"categories_segments":[],"categories_sizes":[],"default_left":[0,0,0,0,0,0,0],"id":70,"left_children":[1,3,5,-1,-1,-1,-1],"loss_changes":[1.6013776E0,1.7287524E0,1.6267667E0,0E0,0E0,0E0,0E0],"parents":[2147483647,0,0,1,1,2,2],"right_children":[2,4,6,-1,-1,-1,-1],"split_conditions":[1E0,1E0,1E0,-6.129719E-3,4.079526E-3,2.4307178E-2,-5.0008595E-3],"split_indices":[86,79,28,0,0,0,0],"split_type":[0,0,0,0,0,0,0],"sum_hessian":[1.7129402E2,1.585113E2,1.2782717E1,8.875745E1,6.975386E1,7.472745E0,5.3099723E0],"tree_param":{"num_deleted":"0","num_feature":"128","num_nodes":"7","size_leaf_vector":"1"}},{"base_weights":[2.5893182E-3,-3.0505313E-2,3.0825803E-1,-5.1976023E-3,3.8029433E-3,-1.5371267E-3,2.466122E-2],"categories":[],"categories_nodes":[],"categories_segments":[],"categories_sizes":[],"default_left":[0,0,0,0,0,0,0],"id":71,"left_children":[1,3,5,-1,-1,-1,-1],"loss_changes":[1.8390326E0,1.3261831E0,1.1891916E0,0E0,0E0,0E0,0E0],"parents":[2147483647,0,0,1,1,2,2],"right_children":[2,4,6,-1,-1,-1,-1],"split_conditions":[1E0,1E0,4.5E-1,-5.1976023E-3,3.8029433E-3,-1.5371267E-3,2.466122E-2],"split_indices":[86,80,11,0,0,0,0],"split_type":[0,0,0,0,0,0,0],"sum_hessian":[1.7214674E2,1.593906E2,1.275615E1,9.442977E1,6.496082E1,5.974764E0,6.781387E0],"tree_param":{"num_deleted":"0","num_feature":"128","num_nodes":"7","size_leaf_vector":"1"}},{"base_weights":[-2.4481334E-2,-6.543575E-2,1.9462167E-1,-9.245795E-3,1.5393341E-3,1.1562284E-2,2.3378814E-3],"categories":[],"categories_nodes":[],"categories_segments":[],"categories_sizes":[],"default_left":[0,0,0,0,0,0,0],"id":72,"left_children":[1,3,5,-1,-1,-1,-1],"loss_changes":[1.6149882E0,1.7460468E0,1.0018885E-1,0E0,0E0,0E0,0E0],"parents":[2147483647,0,0,1,1,2,2],"right_children":[2,4,6,-1,-1,-1,-1],"split_conditions":[5E-1,1E0,5E0,-9.245795E-3,1.5393341E-3,1.1562284E-2,2.3378814E-3],"split_indices":[11,78,1,0,0,0,0],"split_type":[0,0,0,0,0,0,0],"sum_hessian":[1.6788216E2,1.443982E2,2.3483965E1,6.2358444E1,8.203974E1,1.6562187E1,6.921777E0],"tree_param":{"num_deleted":"0","num_feature":"128","num_nodes":"7","size_leaf_vector":"1"}},{"base_weights":[7.9522614E-4,-3.2968443E-2,1.5498206E-1,-6.6980235E-3,5.2193804E-3,1.001811E-2,-4.4617194E-4],"categories":[],"categories_nodes":[],"categories_segments":[],"categories_sizes":[],"default_left":[0,0,0,0,0,0,0],"id":73,"left_children":[1,3,5,-1,-1,-1,-1],"loss_changes":[9.281138E-1,2.1000836E0,2.4712127E-1,0E0,0E0,0E0,0E0],"parents":[2147483647,0,0,1,1,2,2],"right_children":[2,4,6,-1,-1,-1,-1],"split_conditions":[4.5E-1,1E0,2.2E0,-6.6980235E-3,5.2193804E-3,1.001811E-2,-4.4617194E-4],"split_indices":[11,80,2,0,0,0,0],"split_type":[0,0,0,0,0,0,0],"sum_hessian":[1.6837328E2,1.4135123E2,2.7022049E1,8.15296E1,5.9821632E1,2.0291782E1,6.730267E0],"tree_param":{"num_deleted":"0","num_feature":"128","num_nodes":"7","size_leaf_vector":"1"}},{"base_weights":[-2.320577E-2,-1.1251905E-1,7.102905E-2,-2.1601968E-2,-1.3960063E-3,1.0563134E-2,-2.0981457E-3],"categories":[],"categories_nodes":[],"categories_segments":[],"categories_sizes":[],"default_left":[0,0,0,0,0,0,0],"id":74,"left_children":[1,3,5,-1,-1,-1,-1],"loss_changes":[1.5206141E0,2.433456E0,1.4493062E0,0E0,0E0,0E0,0E0],"parents":[2147483647,0,0,1,1,2,2],"right_children":[2,4,6,-1,-1,-1,-1],"split_conditions":[1.1E-1,1E0,1E0,-2.1601968E-2,-1.3960063E-3,1.0563134E-2,-2.0981457E-3],"split_indices":[11,30,31,0,0,0,0],"split_type":[0,0,0,0,0,0,0],"sum_hessian":[1.7092438E2,8.7255646E1,8.366873E1,1.3967489E1,7.3288155E1,3.5393505E1,4.827523E1],"tree_param":{"num_deleted":"0","num_feature":"128","num_nodes":"7","size_leaf_vector":"1"}},{"base_weights":[-2.2095617E-2,-5.515422E-2,2.509956E-1,-5.4600276E-3,4.3102033E-3,2.092464E-2,-5.852567E-3],"categories":[],"categories_nodes":[],"categories_segments":[],"categories_sizes":[],"default_left":[0,0,0,0,0,0,0],"id":75,"left_children":[1,3,5,-1,-1,-1,-1],"loss_changes":[1.6672146E0,1.2846566E0,1.4787261E0,0E0,0E0,0E0,0E0],"parents":[2147483647,0,0,1,1,2,2],"right_children":[2,4,6,-1,-1,-1,-1],"split_conditions":[1E0,1E0,1E0,-5.4600276E-3,4.3102033E-3,2.092464E-2,-5.852567E-3],"split_indices":[86,81,28,0,0,0,0],"split_type":[0,0,0,0,0,0,0],"sum_hessian":[1.7200429E2,1.5699028E2,1.50140085E1,1.1439169E2,4.2598587E1,9.847238E0,5.1667705E0],"tree_param":{"num_deleted":"0","num_feature":"128","num_nodes":"7","size_leaf_vector":"1"}},{"base_weights":[5.6501124E-3,-7.125949E-2,1.1282722E-1,-2.1129265E-2,1.5770482E-4,6.838724E-5,1.2792984E-2],"categories":[],"categories_nodes":[],"categories_segments":[],"categories_sizes":[],"default_left":[0,0,0,0,0,0,0],"id":76,"left_children":[1,3,5,-1,-1,-1,-1],"loss_changes":[1.4733871E0,2.7332218E0,1.1871634E0,0E0,0E0,0E0,0E0],"parents":[2147483647,0,0,1,1,2,2],"right_children":[2,4,6,-1,-1,-1,-1],"split_conditions":[1E0,1E0,1E0,-2.1129265E-2,1.5770482E-4,6.838724E-5,1.2792984E-2],"split_indices":[79,25,37,0,0,0,0],"split_type":[0,0,0,0,0,0,0],"sum_hessian":[1.6886824E2,9.929233E1,6.957591E1,1.3265954E1,8.602637E1,4.1940876E1,2.7635036E1],"tree_param":{"num_deleted":"0","num_feature":"128","num_nodes":"7","size_leaf_vector":"1"}},{"base_weights":[-1.4894142E-2,-1.1287765E-1,8.341761E-2,-1.3312827E-2,5.5310805E-3,-1.2157219E-2,7.430316E-3],"categories":[],"categories_nodes":[],"categories_segments":[],"categories_sizes":[],"default_left":[0,0,0,0,0,0,0],"id":77,"left_children":[1,3,5,-1,-1,-1,-1],"loss_changes":[1.7365891E0,3.2313051E0,2.105603E0,0E0,0E0,0E0,0E0],"parents":[2147483647,0,0,1,1,2,2],"right_children":[2,4,6,-1,-1,-1,-1],"split_conditions":[5E0,1E0,1E0,-1.3312827E-2,5.5310805E-3,-1.2157219E-2,7.430316E-3],"split_indices":[6,81,10,0,0,0,0],"split_type":[0,0,0,0,0,0,0],"sum_hessian":[1.703889E2,8.496589E1,8.542301E1,4.9819893E1,3.5146E1,1.1943405E1,7.347961E1],"tree_param":{"num_deleted":"0","num_feature":"128","num_nodes":"7","size_leaf_vector":"1"}},{"base_weights":[1.4793337E-2,-1.4513072E-1,6.724846E-2,-2.0860957E-2,4.5627174E-3,9.428127E-3,-1.4943613E-3],"categories":[],"categories_nodes":[],"categories_segments":[],"categories_sizes":[],"default_left":[0,0,0,0,0,0,0],"id":78,"left_children":[1,3,5,-1,-1,-1,-1],"loss_changes":[1.5346137E0,3.105837E0,1.640087E0,0E0,0E0,0E0,0E0],"parents":[2147483647,0,0,1,1,2,2],"right_children":[2,4,6,-1,-1,-1,-1],"split_conditions":[1E0,1E0,1.4E-1,-2.0860957E-2,4.5627174E-3,9.428127E-3,-1.4943613E-3],"split_indices":[10,41,3,0,0,0,0],"split_type":[0,0,0,0,0,0,0],"sum_hessian":[1.7211806E2,4.032927E1,1.317888E2,1.6970533E1,2.3358736E1,5.6508472E1,7.528033E1],"tree_param":{"num_deleted":"0","num_feature":"128","num_nodes":"7","size_leaf_vector":"1"}},{"base_weights":[1.5058646E-2,-2.2254951E-2,2.9968065E-1,-3.3981053E-3,6.8090633E-3,2.2985643E-2,-3.4709207E-3],"categories":[],"categories_nodes":[],"categories_segments":[],"categories_sizes":[],"default_left":[0,0,0,0,0,0,0],"id":79,"left_children":[1,3,5,-1,-1,-1,-1],"loss_changes":[1.9426416E0,1.2309815E0,1.4107744E0,0E0,0E0,0E0,0E0],"parents":[2147483647,0,0,1,1,2,2],"right_children":[2,4,6,-1,-1,-1,-1],"split_conditions":[1E0,1E0,1E0,-3.3981053E-3,6.8090633E-3,2.2985643E-2,-3.4709207E-3],"split_indices":[86,83,28,0,0,0,0],"split_type":[0,0,0,0,0,0,0],"sum_hessian":[1.7477835E2,1.5859569E2,1.618266E1,1.2530249E2,3.3293205E1,1.0432072E1,5.7505865E0],"tree_param":{"num_deleted":"0","num_feature":"128","num_nodes":"7","size_leaf_vector":"1"}},{"base_weights":[-1.6101254E-2,-9.713533E-2,6.308491E-2,-1.2410096E-2,5.8872364E-3,9.898406E-3,-2.6357926E-3],"categories":[],"categories_nodes":[],"categories_segments":[],"categories_sizes":[],"default_left":[0,0,0,0,0,0,0],"id":80,"left_children":[1,3,5,-1,-1,-1,-1],"loss_changes":[1.1650901E0,3.0464141E0,1.4961809E0,0E0,0E0,0E0,0E0],"parents":[2147483647,0,0,1,1,2,2],"right_children":[2,4,6,-1,-1,-1,-1],"split_conditions":[5E0,1E0,1E0,-1.2410096E-2,5.8872364E-3,9.898406E-3,-2.6357926E-3],"split_indices":[6,81,31,0,0,0,0],"split_type":[0,0,0,0,0,0,0],"sum_hessian":[1.7179454E2,8.434643E1,8.744812E1,4.907206E1,3.5274364E1,3.875685E1,4.869127E1],"tree_param":{"num_deleted":"0","num_feature":"128","num_nodes":"7","size_leaf_vector":"1"}},{"base_weights":[-1.00402925E-2,3.621467E-2,-2.4903461E-1,-1.8334155E-3,7.541962E-3,-1.8603815E-2,3.6478345E-3],"categories":[],"categories_nodes":[],"categories_segments":[],"categories_sizes":[],"default_left":[0,0,0,0,0,0,0],"id":81,"left_children":[1,3,5,-1,-1,-1,-1],"loss_changes":[1.9731401E0,1.2849058E0,1.2813504E0,0E0,0E0,0E0,0E0],"parents":[2147483647,0,0,1,1,2,2],"right_children":[2,4,6,-1,-1,-1,-1],"split_conditions":[1E0,1E0,1E0,-1.8334155E-3,7.541962E-3,-1.8603815E-2,3.6478345E-3],"split_indices":[85,79,40,0,0,0,0],"split_type":[0,0,0,0,0,0,0],"sum_hessian":[1.6941008E2,1.454936E2,2.391648E1,9.101993E1,5.447368E1,1.6741396E1,7.175084E0],"tree_param":{"num_deleted":"0","num_feature":"128","num_nodes":"7","size_leaf_vector":"1"}},{"base_weights":[-5.130638E-3,-3.5028204E-2,2.3988059E-1,-3.5041173E-3,8.035417E-3,1.882819E-2,-4.243367E-3],"categories":[],"categories_nodes":[],"categories_segments":[],"categories_sizes":[],"default_left":[0,0,0,0,0,0,0],"id":82,"left_children":[1,3,5,-1,-1,-1,-1],"loss_changes":[1.360107E0,1.1866057E0,1.0566959E0,0E0,0E0,0E0,0E0],"parents":[2147483647,0,0,1,1,2,2],"right_children":[2,4,6,-1,-1,-1,-1],"split_conditions":[1E0,1E0,1E0,-3.5041173E-3,8.035417E-3,1.882819E-2,-4.243367E-3],"split_indices":[86,87,28,0,0,0,0],"split_type":[0,0,0,0,0,0,0],"sum_hessian":[1.749387E2,1.5973248E2,1.5206229E1,1.3819342E2,2.1539059E1,1.0140434E1,5.0657954E0],"tree_param":{"num_deleted":"0","num_feature":"128","num_nodes":"7","size_leaf_vector":"1"}},{"base_weights":[3.5024583E-2,-1.1686981E-1,8.687301E-2,-1.9570624E-2,5.3694244E-3,6.556735E-5,1.0752847E-2],"categories":[],"categories_nodes":[],"categories_segments":[],"categories_sizes":[],"default_left":[0,0,0,0,0,0,0],"id":83,"left_children":[1,3,5,-1,-1,-1,-1],"loss_changes":[1.439265E0,3.1037867E0,1.4716334E0,0E0,0E0,0E0,0E0],"parents":[2147483647,0,0,1,1,2,2],"right_children":[2,4,6,-1,-1,-1,-1],"split_conditions":[1E0,1E0,4.67E0,-1.9570624E-2,5.3694244E-3,6.556735E-5,1.0752847E-2],"split_indices":[10,41,5,0,0,0,0],"split_type":[0,0,0,0,0,0,0],"sum_hessian":[1.7130672E2,4.1998417E1,1.2930829E2,1.7206709E1,2.479171E1,8.05758E1,4.87325E1],"tree_param":{"num_deleted":"0","num_feature":"128","num_nodes":"7","size_leaf_vector":"1"}},{"base_weights":[-1.53369615E-2,-6.765819E-2,2.1490014E-1,-6.9319876E-3,5.824335E-3,1.8131E-2,-1.0219768E-2],"categories":[],"categories_nodes":[],"categories_segments":[],"categories_sizes":[],"default_left":[0,0,0,0,0,0,0],"id":84,"left_children":[1,3,5,-1,-1,-1,-1],"loss_changes":[2.148047E0,1.9653441E0,2.4206524E0,0E0,0E0,0E0,0E0],"parents":[2147483647,0,0,1,1,2,2],"right_children":[2,4,6,-1,-1,-1,-1],"split_conditions":[1E0,1E0,1E0,-6.9319876E-3,5.824335E-3,1.8131E-2,-1.0219768E-2],"split_indices":[82,81,15,0,0,0,0],"split_type":[0,0,0,0,0,0,0],"sum_hessian":[1.6728113E2,1.3918265E2,2.8098482E1,1.0135092E2,3.783173E1,2.1277983E1,6.820498E0],"tree_param":{"num_deleted":"0","num_feature":"128","num_nodes":"7","size_leaf_vector":"1"}},{"base_weights":[9.4154E-3,-3.346751E-2,1.932543E-1,-5.881882E-3,3.988826E-3,3.5594293E-4,1.934371E-2],"categories":[],"categories_nodes":[],"categories_segments":[],"categories_sizes":[],"default_left":[0,0,0,0,0,0,0],"id":85,"left_children":[1,3,5,-1,-1,-1,-1],"loss_changes":[1.4233582E0,1.4512792E0,1.2155966E0,0E0,0E0,0E0,0E0],"parents":[2147483647,0,0,1,1,2,2],"right_children":[2,4,6,-1,-1,-1,-1],"split_conditions":[1E0,1E0,4.7E0,-5.881882E-3,3.988826E-3,3.5594293E-4,1.934371E-2],"split_indices":[82,80,5,0,0,0,0],"split_type":[0,0,0,0,0,0,0],"sum_hessian":[1.714459E2,1.4233427E2,2.9111633E1,8.1536896E1,6.079737E1,1.7485691E1,1.162594E1],"tree_param":{"num_deleted":"0","num_feature":"128","num_nodes":"7","size_leaf_vector":"1"}},{"base_weights":[-4.265304E-3,-2.2587521E-2,2.1558676E-2,-2.0459234E-3,6.238988E-3],"categories":[],"categories_nodes":[],"categories_segments":[],"categories_sizes":[],"default_left":[0,0,0,0,0],"id":86,"left_children":[1,-1,3,-1,-1],"loss_changes":[2.14919E0,0E0,1.1645685E0,0E0,0E0],"parents":[2147483647,0,0,2,2],"right_children":[2,-1,4,-1,-1],"split_conditions":[1E0,-2.2587521E-2,1E0,-2.0459234E-3,6.238988E-3],"split_indices":[20,0,80,0,0],"split_type":[0,0,0,0,0],"sum_hessian":[1.7676897E2,5.145149E0,1.7162381E2,1.0879241E2,6.28314E1],"tree_param":{"num_deleted":"0","num_feature":"128","num_nodes":"5","size_leaf_vector":"1"}},{"base_weights":[5.5587892E-3,-2.9713225E-2,2.803239E-1,-4.206972E-3,8.049012E-3,2.2735141E-2,-4.9455026E-3],"categories":[],"categories_nodes":[],"categories_segments":[],"categories_sizes":[],"default_left":[0,0,0,0,0,0,0],"id":87,"left_children":[1,3,5,-1,-1,-1,-1],"loss_changes":[1.7304062E0,1.7174016E0,1.5675354E0,0E0,0E0,0E0,0E0],"parents":[2147483647,0,0,1,1,2,2],"right_children":[2,4,6,-1,-1,-1,-1],"split_conditions":[1E0,1E0,1E0,-4.206972E-3,8.049012E-3,2.2735141E-2,-4.9455026E-3],"split_indices":[86,83,28,0,0,0,0],"split_type":[0,0,0,0,0,0,0],"sum_hessian":[1.6925128E2,1.5394804E2,1.5303245E1,1.21939026E2,3.2009014E1,9.801372E0,5.5018735E0],"tree_param":{"num_deleted":"0","num_feature":"128","num_nodes":"7","size_leaf_vector":"1"}},{"base_weights":[-8.070379E-3,-5.521188E-2,1.9482568E-1,-4.844125E-3,9.856071E-3,-1.0933089E-2,1.6490445E-2],"categories":[],"categories_nodes":[],"categories_segments":[],"categories_sizes":[],"default_left":[0,0,0,0,0,0,0],"id":88,"left_children":[1,3,5,-1,-1,-1,-1],"loss_changes":[1.7498616E0,1.649463E0,2.2881947E0,0E0,0E0,0E0,0E0],"parents":[2147483647,0,0,1,1,2,2],"right_children":[2,4,6,-1,-1,-1,-1],"split_conditions":[1E0,1E0,5E0,-4.844125E-3,9.856071E-3,-1.0933089E-2,1.6490445E-2],"split_indices":[82,97,6,0,0,0,0],"split_type":[0,0,0,0,0,0,0],"sum_hessian":[1.7232455E2,1.4278812E2,2.953643E1,1.2519374E2,1.7594374E1,6.506327E0,2.3030104E1],"tree_param":{"num_deleted":"0","num_feature":"128","num_nodes":"7","size_leaf_vector":"1"}},{"base_weights":[2.5465036E-2,-3.508035E-2,1.2756762E-1,6.0870675E-3,-1.1678565E-2,-5.040094E-3,1.6977968E-2],"categories":[],"categories_nodes":[],"categories_segments":[],"categories_sizes":[],"default_left":[0,0,0,0,0,0,0],"id":89,"left_children":[1,3,5,-1,-1,-1,-1],"loss_changes":[1.1629343E0,3.8694913E0,3.5483308E0,0E0,0E0,0E0,0E0],"parents":[2147483647,0,0,1,1,2,2],"right_children":[2,4,6,-1,-1,-1,-1],"split_conditions":[1E0,1E0,1E0,6.0870675E-3,-1.1678565E-2,-5.040094E-3,1.6977968E-2],"split_indices":[80,41,41,0,0,0,0],"split_type":[0,0,0,0,0,0,0],"sum_hessian":[1.7950146E2,1.1474275E2,6.475872E1,6.517963E1,4.956312E1,3.24376E1,3.232112E1],"tree_param":{"num_deleted":"0","num_feature":"128","num_nodes":"7","size_leaf_vector":"1"}},{"base_weights":[2.9129243E-2,-7.429183E-3,1.8226208E-1,-4.2704074E-3,5.4013603E-3,-6.049352E-4,1.8056488E-2],"categories":[],"categories_nodes":[],"categories_segments":[],"categories_sizes":[],"default_left":[0,0,0,0,0,0,0],"id":90,"left_children":[1,3,5,-1,-1,-1,-1],"loss_changes":[9.911267E-1,1.3673323E0,1.20674E0,0E0,0E0,0E0,0E0],"parents":[2147483647,0,0,1,1,2,2],"right_children":[2,4,6,-1,-1,-1,-1],"split_conditions":[1E0,1E0,1E0,-4.2704074E-3,5.4013603E-3,-6.049352E-4,1.8056488E-2],"split_indices":[82,79,32,0,0,0,0],"split_type":[0,0,0,0,0,0,0],"sum_hessian":[1.7083145E2,1.4174835E2,2.9083105E1,8.53825E1,5.6365852E1,1.6172056E1,1.2911048E1],"tree_param":{"num_deleted":"0","num_feature":"128","num_nodes":"7","size_leaf_vector":"1"}},{"base_weights":[-7.684746E-3,-5.922816E-2,1.7580993E-1,-8.86328E-3,1.4570002E-3,1.5652522E-2,-1.8077021E-2],"categories":[],"categories_nodes":[],"categories_segments":[],"categories_sizes":[],"default_left":[0,0,0,0,0,0,0],"id":91,"left_children":[1,3,5,-1,-1,-1,-1],"loss_changes":[1.7221905E0,1.5028207E0,3.5146165E0,0E0,0E0,0E0,0E0],"parents":[2147483647,0,0,1,1,2,2],"right_children":[2,4,6,-1,-1,-1,-1],"split_conditions":[1E0,1E0,1E0,-8.86328E-3,1.4570002E-3,1.5652522E-2,-1.8077021E-2],"split_indices":[83,78,15,0,0,0,0],"split_type":[0,0,0,0,0,0,0],"sum_hessian":[1.715845E2,1.3659988E2,3.498462E1,5.632887E1,8.027101E1,2.9529747E1,5.4548726E0],"tree_param":{"num_deleted":"0","num_feature":"128","num_nodes":"7","size_leaf_vector":"1"}},{"base_weights":[-1.2050839E-2,-8.59222E-2,6.621249E-2,-9.630858E-3,4.3402575E-3,9.33664E-3,-2.5194664E-3],"categories":[],"categories_nodes":[],"categories_segments":[],"categories_sizes":[],"default_left":[0,0,0,0,0,0,0],"id":92,"left_children":[1,3,5,-1,-1,-1,-1],"loss_changes":[1.032011E0,1.7693884E0,1.2712023E0,0E0,0E0,0E0,0E0],"parents":[2147483647,0,0,1,1,2,2],"right_children":[2,4,6,-1,-1,-1,-1],"split_conditions":[1.9E-1,1E0,1E0,-9.630858E-3,4.3402575E-3,9.33664E-3,-2.5194664E-3],"split_indices":[11,81,31,0,0,0,0],"split_type":[0,0,0,0,0,0,0],"sum_hessian":[1.6858466E2,8.6474045E1,8.21106E1,5.3098778E1,3.3375267E1,3.889806E1,4.3212543E1],"tree_param":{"num_deleted":"0","num_feature":"128","num_nodes":"7","size_leaf_vector":"1"}},{"base_weights":[-1.2510114E-2,-6.979766E-2,8.755374E-2,-7.302181E-3,8.01487E-3,-8.817839E-3,1.7493518E-2],"categories":[],"categories_nodes":[],"categories_segments":[],"categories_sizes":[],"default_left":[0,0,0,0,0,0,0],"id":93,"left_children":[1,3,5,-1,-1,-1,-1],"loss_changes":[1.0140641E0,2.0799918E0,4.7863216E0,0E0,0E0,0E0,0E0],"parents":[2147483647,0,0,1,1,2,2],"right_children":[2,4,6,-1,-1,-1,-1],"split_conditions":[1E0,1E0,1E0,-7.302181E-3,8.01487E-3,-8.817839E-3,1.7493518E-2],"split_indices":[80,64,41,0,0,0,0],"split_type":[0,0,0,0,0,0,0],"sum_hessian":[1.6656981E2,1.0688783E2,5.9681988E1,8.165611E1,2.5231712E1,3.0567362E1,2.9114624E1],"tree_param":{"num_deleted":"0","num_feature":"128","num_nodes":"7","size_leaf_vector":"1"}},{"base_weights":[-1.7094145E-2,-7.360346E-2,1.8142225E-1,-9.261773E-3,2.3932413E-3,-5.016866E-3,1.873658E-2],"categories":[],"categories_nodes":[],"categories_segments":[],"categories_sizes":[],"default_left":[0,0,0,0,0,0,0],"id":94,"left_children":[1,3,5,-1,-1,-1,-1],"loss_changes":[2.0991714E0,2.0048702E0,2.453157E0,0E0,0E0,0E0,0E0],"parents":[2147483647,0,0,1,1,2,2],"right_children":[2,4,6,-1,-1,-1,-1],"split_conditions":[1E0,1E0,1E0,-9.261773E-3,2.3932413E-3,-5.016866E-3,1.873658E-2],"split_indices":[83,41,33,0,0,0,0],"split_type":[0,0,0,0,0,0,0],"sum_hessian":[1.7617314E2,1.3958522E2,3.6587917E1,7.1369896E1,6.821533E1,1.5866428E1,2.0721489E1],"tree_param":{"num_deleted":"0","num_feature":"128","num_nodes":"7","size_leaf_vector":"1"}},{"base_weights":[3.0329004E-2,-1.270678E-1,7.698876E-2,-2.1243516E-2,6.950807E-3,1.4376715E-4,1.07175475E-2],"categories":[],"categories_nodes":[],"categories_segments":[],"categories_sizes":[],"default_left":[0,0,0,0,0,0,0],"id":95,"left_children":[1,3,5,-1,-1,-1,-1],"loss_changes":[1.3274877E0,3.599273E0,1.3957045E0,0E0,0E0,0E0,0E0],"parents":[2147483647,0,0,1,1,2,2],"right_children":[2,4,6,-1,-1,-1,-1],"split_conditions":[1E0,2E-1,1E0,-2.1243516E-2,6.950807E-3,1.4376715E-4,1.07175475E-2],"split_indices":[10,3,80,0,0,0,0],"split_type":[0,0,0,0,0,0,0],"sum_hessian":[1.6909546E2,3.6695282E1,1.3240018E2,1.5907622E1,2.0787659E1,8.93151E1,4.3085075E1],"tree_param":{"num_deleted":"0","num_feature":"128","num_nodes":"7","size_leaf_vector":"1"}},{"base_weights":[-1.2012982E-2,-1.4985791E-2,1.4890083E-2,-1.6893639E-3,9.035575E-3],"categories":[],"categories_nodes":[],"categories_segments":[],"categories_sizes":[],"default_left":[0,0,0,0,0],"id":96,"left_children":[1,-1,3,-1,-1],"loss_changes":[1.4132669E0,0E0,1.39549E0,0E0,0E0],"parents":[2147483647,0,0,2,2],"right_children":[2,-1,4,-1,-1],"split_conditions":[-2.9E-1,-1.4985791E-2,1E0,-1.6893639E-3,9.035575E-3],"split_indices":[11,0,81,0,0],"split_type":[0,0,0,0,0],"sum_hessian":[1.7470761E2,1.0604082E1,1.6410353E2,1.2994038E2,3.416316E1],"tree_param":{"num_deleted":"0","num_feature":"128","num_nodes":"5","size_leaf_vector":"1"}},{"base_weights":[4.952975E-3,-1.1748365E-2,2.6216162E-2,-1.4129112E-3,6.1679315E-3],"categories":[],"categories_nodes":[],"categories_segments":[],"categories_sizes":[],"default_left":[0,0,0,0,0],"id":97,"left_children":[1,-1,3,-1,-1],"loss_changes":[9.397172E-1,0E0,9.0730035E-1,0E0,0E0],"parents":[2147483647,0,0,2,2],"right_children":[2,-1,4,-1,-1],"split_conditions":[-2.9E-1,-1.1748365E-2,1E0,-1.4129112E-3,6.1679315E-3],"split_indices":[11,0,80,0,0],"split_type":[0,0,0,0,0],"sum_hessian":[1.7316776E2,1.0006674E1,1.6316107E2,1.0681062E2,5.6350452E1],"tree_param":{"num_deleted":"0","num_feature":"128","num_nodes":"5","size_leaf_vector":"1"}},{"base_weights":[1.6124355E-2,-3.53933E-2,2.0052983E-1,-1.3112396E-2,1.6696927E-3,-7.7373083E-3,2.2499382E-2],"categories":[],"categories_nodes":[],"categories_segments":[],"categories_sizes":[],"default_left":[0,0,0,0,0,0,0],"id":98,"left_children":[1,3,5,-1,-1,-1,-1],"loss_changes":[1.6925322E0,2.2375722E0,3.7902641E0,0E0,0E0,0E0,0E0],"parents":[2147483647,0,0,1,1,2,2],"right_children":[2,4,6,-1,-1,-1,-1],"split_conditions":[1E0,-1.7E-1,1E0,-1.3112396E-2,1.6696927E-3,-7.7373083E-3,2.2499382E-2],"split_indices":[83,11,33,0,0,0,0],"split_type":[0,0,0,0,0,0,0],"sum_hessian":[1.694233E2,1.3558502E2,3.383827E1,2.827477E1,1.0731025E2,1.4741659E1,1.909661E1],"tree_param":{"num_deleted":"0","num_feature":"128","num_nodes":"7","size_leaf_vector":"1"}},{"base_weights":[1.4287064E-2,-3.1861257E-2,1.9780113E-1,-3.61075E-3,1.0029993E-2,-4.6121396E-4,2.0298814E-2],"categories":[],"categories_nodes":[],"categories_segments":[],"categories_sizes":[],"default_left":[0,0,0,0,0,0,0],"id":99,"left_children":[1,3,5,-1,-1,-1,-1],"loss_changes":[1.532988E0,1.4417732E0,1.5839851E0,0E0,0E0,0E0,0E0],"parents":[2147483647,0,0,1,1,2,2],"right_children":[2,4,6,-1,-1,-1,-1],"split_conditions":[1E0,1E0,4.7E0,-3.61075E-3,1.0029993E-2,-4.6121396E-4,2.0298814E-2],"split_indices":[82,97,5,0,0,0,0],"split_type":[0,0,0,0,0,0,0],"sum_hessian":[1.7229376E2,1.4097473E2,3.131903E1,1.2305917E2,1.7915546E1,1.8098719E1,1.3220311E1],"tree_param":{"num_deleted":"0","num_feature":"128","num_nodes":"7","size_leaf_vector":"1"}},{"base_weights":[-9.186787E-3,-3.3611506E-2,2.03168E-1,-4.063238E-3,6.101331E-3,-5.1837726E-3,1.845455E-2],"categories":[],"categories_nodes":[],"categories_segments":[],"categories_sizes":[],"default_left":[0,0,0,0,0,0,0],"id":100,"left_children":[1,3,5,-1,-1,-1,-1],"loss_changes":[9.124651E-1,1.2077903E0,1.1168098E0,0E0,0E0,0E0,0E0],"parents":[2147483647,0,0,1,1,2,2],"right_children":[2,4,6,-1,-1,-1,-1],"split_conditions":[1E0,1E0,1E0,-4.063238E-3,6.101331E-3,-5.1837726E-3,1.845455E-2],"split_indices":[100,83,47,0,0,0,0],"split_type":[0,0,0,0,0,0,0],"sum_hessian":[1.6434087E2,1.5116293E2,1.3177926E1,1.17558266E2,3.3604668E1,5.283283E0,7.894643E0],"tree_param":{"num_deleted":"0","num_feature":"128","num_nodes":"7","size_leaf_vector":"1"}},{"base_weights":[-1.7678656E-3,4.0118877E-2,-2.2398962E-1,-1.3361645E-2,3.308139E-3,-1.5234187E-2,3.3546202E-3],"categories":[],"categories_nodes":[],"categories_segments":[],"categories_sizes":[],"default_left":[0,0,0,0,0,0,0],"id":101,"left_children":[1,3,5,-1,-1,-1,-1],"loss_changes":[1.6699818E0,1.298192E0,7.7041173E-1,0E0,0E0,0E0,0E0],"parents":[2147483647,0,0,1,1,2,2],"right_children":[2,4,6,-1,-1,-1,-1],"split_conditions":[1E0,-2.9E-1,1E0,-1.3361645E-2,3.308139E-3,-1.5234187E-2,3.3546202E-3],"split_indices":[85,11,80,0,0,0,0],"split_type":[0,0,0,0,0,0,0],"sum_hessian":[1.6958372E2,1.461358E2,2.3447924E1,7.798548E0,1.3833727E2,1.8175615E1,5.2723083E0],"tree_param":{"num_deleted":"0","num_feature":"128","num_nodes":"7","size_leaf_vector":"1"}},{"base_weights":[-2.5236074E-2,-5.7038367E-2,1.553716E-1,-4.182245E-3,8.9281015E-3,-1.0805695E-2,2.0289568E-2],"categories":[],"categories_nodes":[],"categories_segments":[],"categories_sizes":[],"default_left":[0,0,0,0,0,0,0],"id":102,"left_children":[1,3,5,-1,-1,-1,-1],"loss_changes":[1.0404923E0,1.0220255E0,2.9790602E0,0E0,0E0,0E0,0E0],"parents":[2147483647,0,0,1,1,2,2],"right_children":[2,4,6,-1,-1,-1,-1],"split_conditions":[1E0,1E0,9E0,-4.182245E-3,8.9281015E-3,-1.0805695E-2,2.0289568E-2],"split_indices":[87,84,4,0,0,0,0],"split_type":[0,0,0,0,0,0,0],"sum_hessian":[1.6843785E2,1.4612787E2,2.2309986E1,1.3419768E2,1.1930189E1,9.259272E0,1.30507145E1],"tree_param":{"num_deleted":"0","num_feature":"128","num_nodes":"7","size_leaf_vector":"1"}},{"base_weights":[2.7312784E-2,-1.9540781E-2,1.9845256E-1,-5.024334E-3,5.2921176E-3,1.8465972E-2,-8.840778E-3],"categories":[],"categories_nodes":[],"categories_segments":[],"categories_sizes":[],"default_left":[0,0,0,0,0,0,0],"id":103,"left_children":[1,3,5,-1,-1,-1,-1],"loss_changes":[1.4392016E0,1.51022E0,2.7955058E0,0E0,0E0,0E0,0E0],"parents":[2147483647,0,0,1,1,2,2],"right_children":[2,4,6,-1,-1,-1,-1],"split_conditions":[1E0,1E0,1E0,-5.024334E-3,5.2921176E-3,1.8465972E-2,-8.840778E-3],"split_indices":[83,80,45,0,0,0,0],"split_type":[0,0,0,0,0,0,0],"sum_hessian":[1.7206683E2,1.3856145E2,3.350538E1,8.4805084E1,5.3756367E1,2.307716E1,1.0428219E1],"tree_param":{"num_deleted":"0","num_feature":"128","num_nodes":"7","size_leaf_vector":"1"}},{"base_weights":[-2.2016814E-2,-6.729797E-2,1.333054E-1,-5.222266E-3,1.1108564E-2,1.3414974E-2,-7.584184E-3],"categories":[],"categories_nodes":[],"categories_segments":[],"categories_sizes":[],"default_left":[0,0,0,0,0,0,0],"id":104,"left_children":[1,3,5,-1,-1,-1,-1],"loss_changes":[1.2506782E0,1.5791914E0,1.7568774E0,0E0,0E0,0E0,0E0],"parents":[2147483647,0,0,1,1,2,2],"right_children":[2,4,6,-1,-1,-1,-1],"split_conditions":[1E0,1E0,1E0,-5.222266E-3,1.1108564E-2,1.3414974E-2,-7.584184E-3],"split_indices":[83,100,41,0,0,0,0],"split_type":[0,0,0,0,0,0,0],"sum_hessian":[1.6644792E2,1.310705E2,3.5377438E1,1.1899578E2,1.207471E1,2.4204855E1,1.1172585E1],"tree_param":{"num_deleted":"0","num_feature":"128","num_nodes":"7","size_leaf_vector":"1"}},{"base_weights":[1.8685428E-2,-9.4292454E-2,5.2163295E-2,-2.0289585E-2,2.449667E-3,-2.695132E-3,6.2815994E-3],"categories":[],"categories_nodes":[],"categories_segments":[],"categories_sizes":[],"default_left":[0,0,0,0,0,0,0],"id":105,"left_children":[1,3,5,-1,-1,-1,-1],"loss_changes":[7.055643E-1,2.0158062E0,1.1412327E0,0E0,0E0,0E0,0E0],"parents":[2147483647,0,0,1,1,2,2],"right_children":[2,4,6,-1,-1,-1,-1],"split_conditions":[1E0,1E0,5E0,-2.0289585E-2,2.449667E-3,-2.695132E-3,6.2815994E-3],"split_indices":[10,31,6,0,0,0,0],"split_type":[0,0,0,0,0,0,0],"sum_hessian":[1.7504355E2,3.7936455E1,1.371071E2,9.0663185E0,2.8870136E1,5.665152E1,8.0455574E1],"tree_param":{"num_deleted":"0","num_feature":"128","num_nodes":"7","size_leaf_vector":"1"}},{"base_weights":[1.7441044E-2,-1.12205725E-2,2.5375986E-1,-5.285636E-3,3.4762041E-3,2.0434795E-2,-3.8977035E-3],"categories":[],"categories_nodes":[],"categories_segments":[],"categories_sizes":[],"default_left":[0,0,0,0,0,0,0],"id":106,"left_children":[1,3,5,-1,-1,-1,-1],"loss_changes":[1.203751E0,1.2682723E0,1.1464576E0,0E0,0E0,0E0,0E0],"parents":[2147483647,0,0,1,1,2,2],"right_children":[2,4,6,-1,-1,-1,-1],"split_conditions":[1E0,1E0,1E0,-5.285636E-3,3.4762041E-3,2.0434795E-2,-3.8977035E-3],"split_indices":[86,78,28,0,0,0,0],"split_type":[0,0,0,0,0,0,0],"sum_hessian":[1.7061868E2,1.5641115E2,1.4207523E1,7.1357864E1,8.505328E1,8.893299E0,5.3142247E0],"tree_param":{"num_deleted":"0","num_feature":"128","num_nodes":"7","size_leaf_vector":"1"}},{"base_weights":[9.871181E-3,-1.3808616E-1,5.5687375E-2,-1.2627477E-2,9.163692E-3,7.2435425E-3,-4.388775E-3],"categories":[],"categories_nodes":[],"categories_segments":[],"categories_sizes":[],"default_left":[0,0,0,0,0,0,0],"id":107,"left_children":[1,3,5,-1,-1,-1,-1],"loss_changes":[1.2188891E0,1.798792E0,1.8103654E0,0E0,0E0,0E0,0E0],"parents":[2147483647,0,0,1,1,2,2],"right_children":[2,4,6,-1,-1,-1,-1],"split_conditions":[1E0,5E-1,1E0,-1.2627477E-2,9.163692E-3,7.2435425E-3,-4.388775E-3],"split_indices":[10,3,44,0,0,0,0],"split_type":[0,0,0,0,0,0,0],"sum_hessian":[1.6913605E2,3.7609985E1,1.3152605E2,2.852164E1,9.088346E0,8.107613E1,5.044992E1],"tree_param":{"num_deleted":"0","num_feature":"128","num_nodes":"7","size_leaf_vector":"1"}},{"base_weights":[3.8258191E-3,-3.3236522E-2,1.2700942E-1,-4.4786274E-3,8.278727E-3,-5.9540193E-3,1.5998473E-2],"categories":[],"categories_nodes":[],"categories_segments":[],"categories_sizes":[],"default_left":[0,0,0,0,0,0,0],"id":108,"left_children":[1,3,5,-1,-1,-1,-1],"loss_changes":[8.1730986E-1,1.6200594E0,2.1550915E0,0E0,0E0,0E0,0E0],"parents":[2147483647,0,0,1,1,2,2],"right_children":[2,4,6,-1,-1,-1,-1],"split_conditions":[1E0,5.7E0,8E0,-4.4786274E-3,8.278727E-3,-5.9540193E-3,1.5998473E-2],"split_indices":[83,2,4,0,0,0,0],"split_type":[0,0,0,0,0,0,0],"sum_hessian":[1.6939667E2,1.3302444E2,3.6372227E1,1.0579358E2,2.7230865E1,1.6826757E1,1.954547E1],"tree_param":{"num_deleted":"0","num_feature":"128","num_nodes":"7","size_leaf_vector":"1"}},{"base_weights":[-1.0229481E-3,1.5623456E-2,-1.4199658E-2,-1.6138137E-4,1.1172115E-2],"categories":[],"categories_nodes":[],"categories_segments":[],"categories_sizes":[],"default_left":[0,0,0,0,0],"id":109,"left_children":[1,3,-1,-1,-1],"loss_changes":[8.6136043E-1,6.81328E-1,0E0,0E0,0E0],"parents":[2147483647,0,0,1,1],"right_children":[2,4,-1,-1,-1],"split_conditions":[1E0,1E0,-1.4199658E-2,-1.6138137E-4,1.1172115E-2],"split_indices":[88,102,0,0,0],"split_type":[0,0,0,0,0],"sum_hessian":[1.7315244E2,1.6799374E2,5.158698E0,1.5853546E2,9.458281E0],"tree_param":{"num_deleted":"0","num_feature":"128","num_nodes":"5","size_leaf_vector":"1"}},{"base_weights":[-1.0339257E-2,-7.360344E-2,1.8167984E-1,-1.7019827E-2,-1.1248427E-3,2.3093162E-2,-1.4781887E-2],"categories":[],"categories_nodes":[],"categories_segments":[],"categories_sizes":[],"default_left":[0,0,0,0,0,0,0],"id":110,"left_children":[1,3,5,-1,-1,-1,-1],"loss_changes":[2.0979254E0,1.7249554E0,6.416751E0,0E0,0E0,0E0,0E0],"parents":[2147483647,0,0,1,1,2,2],"right_children":[2,4,6,-1,-1,-1,-1],"split_conditions":[1E0,1E0,4.7E0,-1.7019827E-2,-1.1248427E-3,2.3093162E-2,-1.4781887E-2],"split_indices":[81,10,5,0,0,0,0],"split_type":[0,0,0,0,0,0,0],"sum_hessian":[1.6219424E2,1.2431865E2,3.78756E1,1.5435848E1,1.08882805E2,2.3968235E1,1.3907364E1],"tree_param":{"num_deleted":"0","num_feature":"128","num_nodes":"7","size_leaf_vector":"1"}},{"base_weights":[-4.2039575E-3,-4.194693E-2,1.3889441E-1,-7.381906E-3,2.81253E-3,1.3962525E-2,-1.1336608E-2],"categories":[],"categories_nodes":[],"categories_segments":[],"categories_sizes":[],"default_left":[0,0,0,0,0,0,0],"id":111,"left_children":[1,3,5,-1,-1,-1,-1],"loss_changes":[9.735423E-1,1.5174204E0,2.2489197E0,0E0,0E0,0E0,0E0],"parents":[2147483647,0,0,1,1,2,2],"right_children":[2,4,6,-1,-1,-1,-1],"split_conditions":[1E0,1E0,1E0,-7.381906E-3,2.81253E-3,1.3962525E-2,-1.1336608E-2],"split_indices":[82,78,15,0,0,0,0],"split_type":[0,0,0,0,0,0,0],"sum_hessian":[1.6985995E2,1.3720558E2,3.2654385E1,6.486894E1,7.233663E1,2.4449831E1,8.204553E0],"tree_param":{"num_deleted":"0","num_feature":"128","num_nodes":"7","size_leaf_vector":"1"}},{"base_weights":[1.8310694E-2,-1.0160246E-2,2.7455074E-1,-2.8500913E-3,6.0852594E-3,-3.8214095E-4,1.9819954E-2],"categories":[],"categories_nodes":[],"categories_segments":[],"categories_sizes":[],"default_left":[0,0,0,0,0,0,0],"id":112,"left_children":[1,3,5,-1,-1,-1,-1],"loss_changes":[1.3036389E0,1.047217E0,6.2914E-1,0E0,0E0,0E0,0E0],"parents":[2147483647,0,0,1,1,2,2],"right_children":[2,4,6,-1,-1,-1,-1],"split_conditions":[1E0,1E0,4.5E-1,-2.8500913E-3,6.0852594E-3,-3.8214095E-4,1.9819954E-2],"split_indices":[86,81,11,0,0,0,0],"split_type":[0,0,0,0,0,0,0],"sum_hessian":[1.7178157E2,1.5892508E2,1.285649E1,1.1936321E2,3.9561874E1,5.2904654E0,7.566025E0],"tree_param":{"num_deleted":"0","num_feature":"128","num_nodes":"7","size_leaf_vector":"1"}},{"base_weights":[-1.5334165E-2,-5.558235E-2,1.11989364E-1,5.6101023E-3,-9.635713E-3,-1.6527439E-2,2.6681442E-2],"categories":[],"categories_nodes":[],"categories_segments":[],"categories_sizes":[],"default_left":[0,0,0,0,0,0,0],"id":113,"left_children":[1,3,5,-1,-1,-1,-1],"loss_changes":[9.259365E-1,3.2376382E0,9.01696E0,0E0,0E0,0E0,0E0],"parents":[2147483647,0,0,1,1,2,2],"right_children":[2,4,6,-1,-1,-1,-1],"split_conditions":[1E0,1E0,1E0,5.6101023E-3,-9.635713E-3,-1.6527439E-2,2.6681442E-2],"split_indices":[81,47,41,0,0,0,0],"split_type":[0,0,0,0,0,0,0],"sum_hessian":[1.6961339E2,1.3101543E2,3.859795E1,5.9331184E1,7.168425E1,1.93593E1,1.9238651E1],"tree_param":{"num_deleted":"0","num_feature":"128","num_nodes":"7","size_leaf_vector":"1"}},{"base_weights":[-1.804912E-2,-5.787986E-2,1.114926E-1,-7.911204E-3,5.8640027E-3,2.0021686E-2,-1.6399108E-2],"categories":[],"categories_nodes":[],"categories_segments":[],"categories_sizes":[],"default_left":[0,0,0,0,0,0,0],"id":114,"left_children":[1,3,5,-1,-1,-1,-1],"loss_changes":[9.495874E-1,2.5405746E0,6.18264E0,0E0,0E0,0E0,0E0],"parents":[2147483647,0,0,1,1,2,2],"right_children":[2,4,6,-1,-1,-1,-1],"split_conditions":[1E0,4.7E0,4.7E0,-7.911204E-3,5.8640027E-3,2.0021686E-2,-1.6399108E-2],"split_indices":[81,5,5,0,0,0,0],"split_type":[0,0,0,0,0,0,0],"sum_hessian":[1.7278435E2,1.3426675E2,3.8517593E1,8.567143E1,4.8595325E1,2.3506784E1,1.5010808E1],"tree_param":{"num_deleted":"0","num_feature":"128","num_nodes":"7","size_leaf_vector":"1"}},{"base_weights":[-3.9593135E-3,-3.5266995E-2,1.8344769E-1,1.1147142E-3,-9.373699E-3,-1.0613926E-2,2.1203967E-2],"categories":[],"categories_nodes":[],"categories_segments":[],"categories_sizes":[],"default_left":[0,0,0,0,0,0,0],"id":115,"left_children":[1,3,5,-1,-1,-1,-1],"loss_changes":[1.0800215E0,1.3981254E0,2.9608257E0,0E0,0E0,0E0,0E0],"parents":[2147483647,0,0,1,1,2,2],"right_children":[2,4,6,-1,-1,-1,-1],"split_conditions":[1E0,1E0,1E0,1.1147142E-3,-9.373699E-3,-1.0613926E-2,2.1203967E-2],"split_indices":[91,15,45,0,0,0,0],"split_type":[0,0,0,0,0,0,0],"sum_hessian":[1.7356201E2,1.5219571E2,2.1366304E1,1.1352915E2,3.8666557E1,8.302206E0,1.3064097E1],"tree_param":{"num_deleted":"0","num_feature":"128","num_nodes":"7","size_leaf_vector":"1"}},{"base_weights":[-5.1361183E-3,-1.7685318E-1,4.9795646E-2,-1.7508587E-2,4.190638E-3,5.1700935E-4,1.7831145E-2],"categories":[],"categories_nodes":[],"categories_segments":[],"categories_sizes":[],"default_left":[0,0,0,0,0,0,0],"id":116,"left_children":[1,3,5,-1,-1,-1,-1],"loss_changes":[1.6359059E0,2.0442412E0,1.5766566E0,0E0,0E0,0E0,0E0],"parents":[2147483647,0,0,1,1,2,2],"right_children":[2,4,6,-1,-1,-1,-1],"split_conditions":[1E0,1E0,1E0,-1.7508587E-2,4.190638E-3,5.1700935E-4,1.7831145E-2],"split_indices":[10,15,91,0,0,0,0],"split_type":[0,0,0,0,0,0,0],"sum_hessian":[1.6376076E2,3.7000237E1,1.2676052E2,2.11924E1,1.5807838E1,1.1689703E2,9.863494E0],"tree_param":{"num_deleted":"0","num_feature":"128","num_nodes":"7","size_leaf_vector":"1"}},{"base_weights":[1.6626036E-2,4.111222E-2,-2.1612835E-1,-6.497346E-4,1.2868953E-2,-2.4446016E-2,5.3640516E-3],"categories":[],"categories_nodes":[],"categories_segments":[],"categories_sizes":[],"default_left":[0,0,0,0,0,0,0],"id":117,"left_children":[1,3,5,-1,-1,-1,-1],"loss_changes":[1.0556794E0,1.9445105E0,1.8228273E0,0E0,0E0,0E0,0E0],"parents":[2147483647,0,0,1,1,2,2],"right_children":[2,4,6,-1,-1,-1,-1],"split_conditions":[1E0,1E0,1E0,-6.497346E-4,1.2868953E-2,-2.4446016E-2,5.3640516E-3],"split_indices":[95,81,45,0,0,0,0],"split_type":[0,0,0,0,0,0,0],"sum_hessian":[1.7243542E2,1.5974663E2,1.2688803E1,1.3153738E2,2.820923E1,5.4949946E0,7.193808E0],"tree_param":{"num_deleted":"0","num_feature":"128","num_nodes":"7","size_leaf_vector":"1"}},{"base_weights":[-5.984342E-3,-5.1850893E-2,1.7836557E-1,-5.3348285E-3,1.0105883E-2,-8.2882756E-4,1.5362903E-2],"categories":[],"categories_nodes":[],"categories_segments":[],"categories_sizes":[],"default_left":[0,0,0,0,0,0,0],"id":118,"left_children":[1,3,5,-1,-1,-1,-1],"loss_changes":[1.5440876E0,2.1376488E0,9.4055235E-1,0E0,0E0,0E0,0E0],"parents":[2147483647,0,0,1,1,2,2],"right_children":[2,4,6,-1,-1,-1,-1],"split_conditions":[1E0,1E0,1E0,-5.3348285E-3,1.0105883E-2,-8.2882756E-4,1.5362903E-2],"split_indices":[82,91,33,0,0,0,0],"split_type":[0,0,0,0,0,0,0],"sum_hessian":[1.7214462E2,1.4072557E2,3.141906E1,1.1811706E2,2.2608507E1,1.42395525E1,1.7179508E1],"tree_param":{"num_deleted":"0","num_feature":"128","num_nodes":"7","size_leaf_vector":"1"}},{"base_weights":[-1.9036286E-2,-4.623798E-2,2.0620847E-1,-4.005188E-3,7.66172E-3,1.894583E-2,-5.604898E-3],"categories":[],"categories_nodes":[],"categories_segments":[],"categories_sizes":[],"default_left":[0,0,0,0,0,0,0],"id":119,"left_children":[1,3,5,-1,-1,-1,-1],"loss_changes":[1.130382E0,1.1540627E0,1.309481E0,0E0,0E0,0E0,0E0],"parents":[2147483647,0,0,1,1,2,2],"right_children":[2,4,6,-1,-1,-1,-1],"split_conditions":[1E0,1E0,1E0,-4.005188E-3,7.66172E-3,1.894583E-2,-5.604898E-3],"split_indices":[86,91,28,0,0,0,0],"split_type":[0,0,0,0,0,0,0],"sum_hessian":[1.7170992E2,1.567532E2,1.4956705E1,1.3656052E2,2.0192701E1,9.078681E0,5.878024E0],"tree_param":{"num_deleted":"0","num_feature":"128","num_nodes":"7","size_leaf_vector":"1"}},{"base_weights":[-1.597506E-3,-1.4424275E-1,4.0381033E-2,-1.3799543E-2,3.5572834E-3,1.8642201E-4,1.55956615E-2],"categories":[],"categories_nodes":[],"categories_segments":[],"categories_sizes":[],"default_left":[0,0,0,0,0,0,0],"id":120,"left_children":[1,3,5,-1,-1,-1,-1],"loss_changes":[1.0966023E0,1.2794317E0,1.4038514E0,0E0,0E0,0E0,0E0],"parents":[2147483647,0,0,1,1,2,2],"right_children":[2,4,6,-1,-1,-1,-1],"split_conditions":[1E0,1E0,1E0,-1.3799543E-2,3.5572834E-3,1.8642201E-4,1.55956615E-2],"split_indices":[10,43,91,0,0,0,0],"split_type":[0,0,0,0,0,0,0],"sum_hessian":[1.7326854E2,3.662713E1,1.366414E2,2.1853209E1,1.4773919E1,1.2485641E2,1.1785003E1],"tree_param":{"num_deleted":"0","num_feature":"128","num_nodes":"7","size_leaf_vector":"1"}},{"base_weights":[1.16240345E-2,-7.12489E-2,9.398799E-2,6.5222755E-3,-8.966349E-3,-7.915987E-3,9.701471E-3],"categories":[],"categories_nodes":[],"categories_segments":[],"categories_sizes":[],"default_left":[0,0,0,0,0,0,0],"id":121,"left_children":[1,3,5,-1,-1,-1,-1],"loss_changes":[1.2320098E0,2.0868764E0,2.4308822E0,0E0,0E0,0E0,0E0],"parents":[2147483647,0,0,1,1,2,2],"right_children":[2,4,6,-1,-1,-1,-1],"split_conditions":[1E0,1E0,3.3E0,6.5222755E-3,-8.966349E-3,-7.915987E-3,9.701471E-3],"split_indices":[78,28,2,0,0,0,0],"split_type":[0,0,0,0,0,0,0],"sum_hessian":[1.7058926E2,8.536824E1,8.522102E1,2.9423525E1,5.5944714E1,2.336955E1,6.1851475E1],"tree_param":{"num_deleted":"0","num_feature":"128","num_nodes":"7","size_leaf_vector":"1"}},{"base_weights":[1.2777738E-3,-3.571691E-2,1.9971915E-1,-6.9177346E-3,1.93922E-3,-1.1983385E-2,2.3543773E-2],"categories":[],"categories_nodes":[],"categories_segments":[],"categories_sizes":[],"default_left":[0,0,0,0,0,0,0],"id":122,"left_children":[1,3,5,-1,-1,-1,-1],"loss_changes":[1.3600448E0,1.2219715E0,4.031972E0,0E0,0E0,0E0,0E0],"parents":[2147483647,0,0,1,1,2,2],"right_children":[2,4,6,-1,-1,-1,-1],"split_conditions":[1E0,5E0,1E0,-6.9177346E-3,1.93922E-3,-1.1983385E-2,2.3543773E-2],"split_indices":[91,6,45,0,0,0,0],"split_type":[0,0,0,0,0,0,0],"sum_hessian":[1.7540163E2,1.5129613E2,2.4105505E1,6.1829903E1,8.946622E1,9.420685E0,1.4684821E1],"tree_param":{"num_deleted":"0","num_feature":"128","num_nodes":"7","size_leaf_vector":"1"}},{"base_weights":[-3.5847658E-3,-4.8783008E-2,2.1060845E-1,-7.3839575E-3,1.658126E-3,5.6454726E-3,1.483427E-2],"categories":[],"categories_nodes":[],"categories_segments":[],"categories_sizes":[],"default_left":[0,0,0,0,0,0,0],"id":123,"left_children":[1,3,5,-1,-1,-1,-1],"loss_changes":[1.7264036E0,1.2152328E0,9.395063E-2,0E0,0E0,0E0,0E0],"parents":[2147483647,0,0,1,1,2,2],"right_children":[2,4,6,-1,-1,-1,-1],"split_conditions":[5E-1,1E0,1E0,-7.3839575E-3,1.658126E-3,5.6454726E-3,1.483427E-2],"split_indices":[11,78,83,0,0,0,0],"split_type":[0,0,0,0,0,0,0],"sum_hessian":[1.6801993E2,1.4193135E2,2.6088575E1,6.2496494E1,7.943485E1,1.7633192E1,8.455383E0],"tree_param":{"num_deleted":"0","num_feature":"128","num_nodes":"7","size_leaf_vector":"1"}},{"base_weights":[-1.149646E-2,-3.674657E-2,2.4215344E-1,-4.2914487E-3,2.791014E-3,1.8531614E-3,1.6360896E-2],"categories":[],"categories_nodes":[],"categories_segments":[],"categories_sizes":[],"default_left":[0,0,0,0,0,0,0],"id":124,"left_children":[1,3,5,-1,-1,-1,-1],"loss_changes":[1.1657002E0,7.670413E-1,2.27355E-1,0E0,0E0,0E0,0E0],"parents":[2147483647,0,0,1,1,2,2],"right_children":[2,4,6,-1,-1,-1,-1],"split_conditions":[1E0,1E0,1E0,-4.2914487E-3,2.791014E-3,1.8531614E-3,1.6360896E-2],"split_indices":[94,80,43,0,0,0,0],"split_type":[0,0,0,0,0,0,0],"sum_hessian":[1.7006064E2,1.5855281E2,1.1507827E1,1.0385105E2,5.470176E1,5.47827E0,6.0295563E0],"tree_param":{"num_deleted":"0","num_feature":"128","num_nodes":"7","size_leaf_vector":"1"}},{"base_weights":[-2.619473E-3,-1.1423497E-1,9.4439045E-2,2.5975197E-3,-1.0263636E-2,-8.230149E-3,7.3202583E-3],"categories":[],"categories_nodes":[],"categories_segments":[],"categories_sizes":[],"default_left":[0,0,0,0,0,0,0],"id":125,"left_children":[1,3,5,-1,-1,-1,-1],"loss_changes":[1.8804463E0,1.2739851E0,1.3713136E0,0E0,0E0,0E0,0E0],"parents":[2147483647,0,0,1,1,2,2],"right_children":[2,4,6,-1,-1,-1,-1],"split_conditions":[1E0,3.3E0,1E0,2.5975197E-3,-1.0263636E-2,-8.230149E-3,7.3202583E-3],"split_indices":[78,2,28,0,0,0,0],"split_type":[0,0,0,0,0,0,0],"sum_hessian":[1.63602E2,7.568305E1,8.791896E1,2.7545937E1,4.8137115E1,1.2879479E1,7.503948E1],"tree_param":{"num_deleted":"0","num_feature":"128","num_nodes":"7","size_leaf_vector":"1"}},{"base_weights":[-5.2961577E-3,-4.1629624E-2,1.085986E-1,4.1928156E-3,-8.268735E-3,-7.846854E-3,2.9801005E-2],"categories":[],"categories_nodes":[],"categories_segments":[],"categories_sizes":[],"default_left":[0,0,0,0,0,0,0],"id":126,"left_children":[1,3,5,-1,-1,-1,-1],